{"learner":{"attributes":{"best_iteration":"299","best_score":"0.1419966418066387","scikit_learn":"{\"_estimator_type\": \"regressor\"}"},"feature_names":["Temperature K","Pressure kPa","Cation_AtomCount","Anion_AtomCount","Cation_BondCount","Anion_BondCount","Cation_ElementCount","Anion_ElementCount","Cation_HBondAcceptorCount","Anion_HBondAcceptorCount","Cation_HBondDonorCount","Anion_HBondDonorCount","Cation_HybridizationRatio_SP3","Anion_HybridizationRatio_SP3","Cation_RotatableBondCount","Anion_RotatableBondCount","Cation_TopologicalPolarSurfaceArea","Anion_TopologicalPolarSurfaceArea","Cation_ExactMolWeight","Anion_ExactMolWeight","Cation_MolMR","Anion_MolMR","Cation_MolLogP","Anion_MolLogP","Cation_CarbonCount","Anion_CarbonCount","Cation_RingCount","Anion_RingCount","Anion_LipinskiRuleOfFive","Cation_VeberRule","Anion_VeberRule","Cation_NumAliphaticRings","Anion_NumAliphaticRings","Cation_NumAromaticRings","Anion_NumAromaticRings","Cation_NumSaturatedRings","Anion_NumSaturatedRings","Cation_FractionCSP3","Anion_FractionCSP3","Cation_HeavyAtomCount","Anion_HeavyAtomCount","Cation_NHOHCount","Anion_NHOHCount","Cation_NOCount","Anion_NOCount","Cation_NumValenceElectrons","Anion_NumValenceElectrons","Cation_TPSA","Anion_TPSA","Cation_NumAromaticHeterocycles","Anion_NumAromaticHeterocycles","Cation_NumAliphaticHeterocycles","Anion_NumAliphaticHeterocycles","Cation_ALogP","Anion_ALogP","Cation_XLogP","Anion_XLogP","Cation_MolWt","Anion_MolWt","Cation_PolarSurfaceArea","Anion_PolarSurfaceArea","Cation_MolecularVolume","Anion_MolecularVolume","Cation_BalabanIndex","Anion_BalabanIndex","Cation_KierHallAlpha","Anion_KierHallAlpha"],"feature_types":["float","float","int","int","int","int","int","int","int","int","int","int","float","float","int","int","float","float","float","float","float","float","float","float","int","int","int","int","int","int","int","int","int","int","int","int","int","float","float","int","int","int","int","int","int","int","int","float","float","int","int","int","int","float","float","float","float","float","float","float","float","float","float","float","float","float","float"],"gradient_booster":{"model":{"gbtree_model_param":{"num_parallel_tree":"1","num_trees":"300"},"iteration_indptr":[0,1,2,3,4,5,6,7,8,9,10,11,12,13,14,15,16,17,18,19,20,21,22,23,24,25,26,27,28,29,30,31,32,33,34,35,36,37,38,39,40,41,42,43,44,45,46,47,48,49,50,51,52,53,54,55,56,57,58,59,60,61,62,63,64,65,66,67,68,69,70,71,72,73,74,75,76,77,78,79,80,81,82,83,84,85,86,87,88,89,90,91,92,93,94,95,96,97,98,99,100,101,102,103,104,105,106,107,108,109,110,111,112,113,114,115,116,117,118,119,120,121,122,123,124,125,126,127,128,129,130,131,132,133,134,135,136,137,138,139,140,141,142,143,144,145,146,147,148,149,150,151,152,153,154,155,156,157,158,159,160,161,162,163,164,165,166,167,168,169,170,171,172,173,174,175,176,177,178,179,180,181,182,183,184,185,186,187,188,189,190,191,192,193,194,195,196,197,198,199,200,201,202,203,204,205,206,207,208,209,210,211,212,213,214,215,216,217,218,219,220,221,222,223,224,225,226,227,228,229,230,231,232,233,234,235,236,237,238,239,240,241,242,243,244,245,246,247,248,249,250,251,252,253,254,255,256,257,258,259,260,261,262,263,264,265,266,267,268,269,270,271,272,273,274,275,276,277,278,279,280,281,282,283,284,285,286,287,288,289,290,291,292,293,294,295,296,297,298,299,300],"tree_info":[0,0,0,0,0,0,0,0,0,0,0,0,0,0,0,0,0,0,0,0,0,0,0,0,0,0,0,0,0,0,0,0,0,0,0,0,0,0,0,0,0,0,0,0,0,0,0,0,0,0,0,0,0,0,0,0,0,0,0,0,0,0,0,0,0,0,0,0,0,0,0,0,0,0,0,0,0,0,0,0,0,0,0,0,0,0,0,0,0,0,0,0,0,0,0,0,0,0,0,0,0,0,0,0,0,0,0,0,0,0,0,0,0,0,0,0,0,0,0,0,0,0,0,0,0,0,0,0,0,0,0,0,0,0,0,0,0,0,0,0,0,0,0,0,0,0,0,0,0,0,0,0,0,0,0,0,0,0,0,0,0,0,0,0,0,0,0,0,0,0,0,0,0,0,0,0,0,0,0,0,0,0,0,0,0,0,0,0,0,0,0,0,0,0,0,0,0,0,0,0,0,0,0,0,0,0,0,0,0,0,0,0,0,0,0,0,0,0,0,0,0,0,0,0,0,0,0,0,0,0,0,0,0,0,0,0,0,0,0,0,0,0,0,0,0,0,0,0,0,0,0,0,0,0,0,0,0,0,0,0,0,0,0,0,0,0,0,0,0,0,0,0,0,0,0,0,0,0,0,0,0,0,0,0,0,0,0,0,0,0,0,0,0,0,0,0,0,0,0,0],"trees":[{"base_weights":[-4.9963747E-3,2.715493E-1,-3.6523888E-1,-2.0314331E-1,3.7351906E-1,-5.552853E-1,6.80122E-2,2.1663831E-1,-5.022289E-1,6.140518E-1,1.9155668E-1,-3.3075854E-1,-7.413989E-1,2.4282534E-1,-4.019743E-1,-7.56209E-3,5.2084476E-1,-9.337688E-1,-1.338997E-1,6.710547E-1,8.844843E-2,4.7464976E-1,-3.8559062E-3,-2.7950233E-2,-5.1298195E-1,6.0524724E-2,-7.9638875E-1,5.742196E-1,-1.2811005E-1,-5.161713E-1,1.0496707E-1,-3.987545E-2,4.0646203E-2,7.355605E-2,3.2347515E-2,-4.624896E-2,-1.1236999E-1,2.1202115E-2,-3.5620395E-2,4.4937916E-2,7.683041E-2,-1.3855246E-2,8.872813E-2,1.9727424E-2,6.0750317E-2,-1.6624345E-2,4.6835583E-2,-1.4317903E-2,5.4680835E-2,3.060563E-3,-6.0363717E-2,-2.2200163E-2,3.0797591E-2,-8.288538E-2,1.2805573E-2,7.207976E-2,3.2896917E-2,-3.158257E-2,1.3615369E-2,-1.0937108E-2,-6.1782647E-2,6.3200966E-2,-1.3285364E-3],"categories":[],"categories_nodes":[],"categories_segments":[],"categories_sizes":[],"default_left":[0,0,0,0,0,0,0,0,0,0,0,0,0,0,0,0,0,0,0,0,0,0,0,0,0,0,0,0,0,0,0,0,0,0,0,0,0,0,0,0,0,0,0,0,0,0,0,0,0,0,0,0,0,0,0,0,0,0,0,0,0,0,0],"id":0,"left_children":[1,3,5,7,9,11,13,15,17,19,21,23,25,27,29,31,33,35,37,39,41,43,45,47,49,51,53,55,57,59,61,-1,-1,-1,-1,-1,-1,-1,-1,-1,-1,-1,-1,-1,-1,-1,-1,-1,-1,-1,-1,-1,-1,-1,-1,-1,-1,-1,-1,-1,-1,-1,-1],"loss_changes":[7.253583E2,1.9945312E2,2.6038992E2,9.1635216E1,1.4829944E2,9.160364E1,7.9381836E1,2.0737713E1,6.7587135E1,4.3683533E1,1.0687998E2,5.505406E1,5.300952E1,8.661337E1,1.5221668E1,2.8667583E1,5.228874E0,1.7024399E1,1.7839348E1,2.8046387E1,2.6235287E1,2.8955017E1,8.780127E1,2.4980299E1,3.071933E1,5.5214667E0,3.383966E1,1.3135651E1,1.6561945E1,8.782043E0,3.0622756E0,0E0,0E0,0E0,0E0,0E0,0E0,0E0,0E0,0E0,0E0,0E0,0E0,0E0,0E0,0E0,0E0,0E0,0E0,0E0,0E0,0E0,0E0,0E0,0E0,0E0,0E0,0E0,0E0,0E0,0E0,0E0,0E0],"parents":[2147483647,0,0,1,1,2,2,3,3,4,4,5,5,6,6,7,7,8,8,9,9,10,10,11,11,12,12,13,13,14,14,15,15,16,16,17,17,18,18,19,19,20,20,21,21,22,22,23,23,24,24,25,25,26,26,27,27,28,28,29,29,30,30],"right_children":[2,4,6,8,10,12,14,16,18,20,22,24,26,28,30,32,34,36,38,40,42,44,46,48,50,52,54,56,58,60,62,-1,-1,-1,-1,-1,-1,-1,-1,-1,-1,-1,-1,-1,-1,-1,-1,-1,-1,-1,-1,-1,-1,-1,-1,-1,-1,-1,-1,-1,-1,-1,-1],"split_conditions":[3.2808E2,6.7051E1,1.3E1,3.88E-2,3.0719E2,3.385E2,3.5787E2,3.26938E1,1.2610258E2,4E0,7.137E1,6.168E1,-1.2804E0,5E0,3.6173892E0,2E0,3E0,2.94199E2,3.03128E2,3.6019E1,1.44912E2,1.1403719E2,9.43E0,1.5112297E2,-3.1368E-1,6.35E0,7E0,3.43202E2,1.7E1,3.895E-1,2E0,-3.987545E-2,4.0646203E-2,7.355605E-2,3.2347515E-2,-4.624896E-2,-1.1236999E-1,2.1202115E-2,-3.5620395E-2,4.4937916E-2,7.683041E-2,-1.3855246E-2,8.872813E-2,1.9727424E-2,6.0750317E-2,-1.6624345E-2,4.6835583E-2,-1.4317903E-2,5.4680835E-2,3.060563E-3,-6.0363717E-2,-2.2200163E-2,3.0797591E-2,-8.288538E-2,1.2805573E-2,7.207976E-2,3.2896917E-2,-3.158257E-2,1.3615369E-2,-1.0937108E-2,-6.1782647E-2,6.3200966E-2,-1.3285364E-3],"split_indices":[0,57,5,53,0,0,0,21,19,24,16,16,53,6,64,24,6,0,0,21,57,19,66,19,53,66,24,0,5,53,24,0,0,0,0,0,0,0,0,0,0,0,0,0,0,0,0,0,0,0,0,0,0,0,0,0,0,0,0,0,0,0,0],"split_type":[0,0,0,0,0,0,0,0,0,0,0,0,0,0,0,0,0,0,0,0,0,0,0,0,0,0,0,0,0,0,0,0,0,0,0,0,0,0,0,0,0,0,0,0,0,0,0,0,0,0,0,0,0,0,0,0,0,0,0,0,0,0,0],"sum_hessian":[7.279E3,4.118E3,3.161E3,7.28E2,3.39E3,2.197E3,9.64E2,3.03E2,4.25E2,1.459E3,1.931E3,9.97E2,1.2E3,7.03E2,2.61E2,1.75E2,1.28E2,1.95E2,2.3E2,1.316E3,1.43E2,7.88E2,1.143E3,3.75E2,6.22E2,7.7E1,1.123E3,3.71E2,3.32E2,2.13E2,4.8E1,9E1,8.5E1,6E1,6.8E1,5.7E1,1.38E2,9E1,1.4E2,4.03E2,9.13E2,1.12E2,3.1E1,2.56E2,5.32E2,8.51E2,2.92E2,3.13E2,6.2E1,8.9E1,5.33E2,3.6E1,4.1E1,1.085E3,3.8E1,2.31E2,1.4E2,1.94E2,1.38E2,4.3E1,1.7E2,8E0,4E1],"tree_param":{"num_deleted":"0","num_feature":"67","num_nodes":"63","size_leaf_vector":"1"}},{"base_weights":[3.6150434E-3,-9.1317624E-2,1.9745739E-1,-4.6335772E-1,-1.3817716E-3,1.6767947E-1,7.3143595E-1,-3.4339002E-1,-7.215605E-1,2.232906E-1,-1.7404419E-1,1.2669064E-1,5.1462346E-1,4.6655677E-2,7.8956544E-1,-1.6982351E-1,-4.9651837E-1,-8.12866E-1,2.0422094E-1,9.5898494E-2,3.5833955E-1,-4.1456994E-1,-1.05655625E-1,3.9248878E-1,9.376138E-2,4.821649E-1,8.3170515E-1,-1.4032614E-2,2.2586156E-2,6.469922E-1,8.3787404E-2,-5.1680125E-2,-8.586957E-3,-5.308297E-2,-1.5291566E-2,-7.1003266E-2,-8.4908776E-2,-2.6653603E-2,4.0585052E-2,-1.3804625E-2,2.1913758E-2,3.220412E-2,5.854041E-2,-4.5734067E-2,8.444982E-3,-1.3873774E-2,1.2947144E-2,5.5342328E-2,2.6843343E-2,-7.910269E-2,1.0552607E-2,2.5985071E-2,5.4733064E-2,2.9972171E-2,8.7192856E-2,7.8421555E-2,5.671331E-4],"categories":[],"categories_nodes":[],"categories_segments":[],"categories_sizes":[],"default_left":[0,0,0,0,0,0,0,0,0,0,0,0,0,0,0,0,0,0,0,0,0,0,0,0,0,0,0,0,0,0,0,0,0,0,0,0,0,0,0,0,0,0,0,0,0,0,0,0,0,0,0,0,0,0,0,0,0],"id":1,"left_children":[1,3,5,7,9,11,13,15,17,19,21,23,25,27,29,31,33,35,37,39,41,43,45,47,49,51,53,-1,-1,55,-1,-1,-1,-1,-1,-1,-1,-1,-1,-1,-1,-1,-1,-1,-1,-1,-1,-1,-1,-1,-1,-1,-1,-1,-1,-1,-1],"loss_changes":[1.3490448E2,1.6465475E2,3.819819E1,2.9427216E1,1.5381226E2,3.241517E1,5.018509E0,1.7350815E1,2.577826E1,2.9608421E1,3.683532E1,1.7853386E1,2.0793571E0,4.0028492E-1,2.6374054E-1,8.956839E0,4.0215607E0,4.251709E-1,2.765893E0,2.5632298E1,6.7018433E0,1.06249695E1,1.3607E1,4.343525E0,1.9028334E1,3.0594635E0,1.8802643E-1,0E0,0E0,2.9876947E0,0E0,0E0,0E0,0E0,0E0,0E0,0E0,0E0,0E0,0E0,0E0,0E0,0E0,0E0,0E0,0E0,0E0,0E0,0E0,0E0,0E0,0E0,0E0,0E0,0E0,0E0,0E0],"parents":[2147483647,0,0,1,1,2,2,3,3,4,4,5,5,6,6,7,7,8,8,9,9,10,10,11,11,12,12,13,13,14,14,15,15,16,16,17,17,18,18,19,19,20,20,21,21,22,22,23,23,24,24,25,25,26,26,29,29],"right_children":[2,4,6,8,10,12,14,16,18,20,22,24,26,28,30,32,34,36,38,40,42,44,46,48,50,52,54,-1,-1,56,-1,-1,-1,-1,-1,-1,-1,-1,-1,-1,-1,-1,-1,-1,-1,-1,-1,-1,-1,-1,-1,-1,-1,-1,-1,-1,-1],"split_conditions":[8.446618E0,1.5384616E-1,1E0,2.8320858E0,4.458227E0,3.874775E0,1.9893821E0,1.7334E-1,1E0,1.3568E1,6.2333045E0,1.30137E1,9.310345E-1,1.5E1,3.8E1,-4.104E-1,4.5209E1,3.88E-2,3.73E1,4.8E1,6.363636E-1,7.692308E-1,7.5E-1,3.88E-2,2.847379E0,2.847379E0,2.4E1,-1.4032614E-2,2.2586156E-2,2.55952E1,8.3787404E-2,-5.1680125E-2,-8.586957E-3,-5.308297E-2,-1.5291566E-2,-7.1003266E-2,-8.4908776E-2,-2.6653603E-2,4.0585052E-2,-1.3804625E-2,2.1913758E-2,3.220412E-2,5.854041E-2,-4.5734067E-2,8.444982E-3,-1.3873774E-2,1.2947144E-2,5.5342328E-2,2.6843343E-2,-7.910269E-2,1.0552607E-2,2.5985071E-2,5.4733064E-2,2.9972171E-2,8.7192856E-2,7.8421555E-2,5.671331E-4],"split_indices":[66,12,33,64,63,64,64,22,26,20,66,20,12,3,45,54,21,22,16,46,38,12,12,22,63,63,3,0,0,20,0,0,0,0,0,0,0,0,0,0,0,0,0,0,0,0,0,0,0,0,0,0,0,0,0,0,0],"split_type":[0,0,0,0,0,0,0,0,0,0,0,0,0,0,0,0,0,0,0,0,0,0,0,0,0,0,0,0,0,0,0,0,0,0,0,0,0,0,0,0,0,0,0,0,0,0,0,0,0,0,0,0,0,0,0,0,0],"sum_hessian":[7.329E3,4.92E3,2.409E3,9.57E2,3.963E3,2.283E3,1.26E2,6.55E2,3.02E2,1.722E3,2.241E3,2.043E3,2.4E2,1E1,1.16E2,3.08E2,3.47E2,2.75E2,2.7E1,8.87E2,8.35E2,4.95E2,1.746E3,2.24E2,1.819E3,2.2E2,2E1,5E0,5E0,3.3E1,8.3E1,5.9E1,2.49E2,3.15E2,3.2E1,7.7E1,1.98E2,8E0,1.9E1,3.06E2,5.81E2,7.22E2,1.13E2,4.56E2,3.9E1,1.531E3,2.15E2,9.6E1,1.28E2,2.3E1,1.796E3,5.1E1,1.69E2,2E0,1.8E1,2.7E1,6E0],"tree_param":{"num_deleted":"0","num_feature":"67","num_nodes":"57","size_leaf_vector":"1"}},{"base_weights":[-2.0354835E-4,3.1383404E-1,-2.6966542E-1,-1.3740462E-1,4.395935E-1,-4.649885E-1,9.067485E-3,-4.9258974E-1,1.3358358E-1,6.0534656E-1,2.6293984E-1,-2.5213102E-1,-6.7377514E-1,2.5385875E-1,-2.677494E-1,-9.069249E-2,-6.641643E-1,4.908968E-1,-3.237757E-2,6.2008023E-1,-5.890226E-1,4.3786195E-1,1.2163672E-1,1.9257225E-2,-4.2980206E-1,-3.424559E-1,-7.818013E-1,4.0347847E-1,-3.8959545E-1,-2.0472394E-2,-5.2361274E-1,-4.8854005E-2,1.0656619E-2,-3.8057525E-2,-9.3434684E-2,3.7844643E-2,8.450593E-2,2.3803186E-2,-2.2211527E-2,4.167148E-2,7.043026E-2,-6.981413E-2,5.7843804E-2,5.725993E-2,2.783115E-2,-6.438742E-4,5.037287E-2,-8.203965E-3,4.3333367E-2,4.0808455E-3,-5.1353592E-2,-4.357698E-2,1.971802E-2,-8.8160865E-2,-4.968346E-2,5.8143705E-2,1.9672297E-2,-1.2360333E-2,-5.8070034E-2,-2.1617927E-2,2.6330827E-2,-5.813671E-2,4.2163115E-2],"categories":[],"categories_nodes":[],"categories_segments":[],"categories_sizes":[],"default_left":[0,0,0,0,0,0,0,0,0,0,0,0,0,0,0,0,0,0,0,0,0,0,0,0,0,0,0,0,0,0,0,0,0,0,0,0,0,0,0,0,0,0,0,0,0,0,0,0,0,0,0,0,0,0,0,0,0,0,0,0,0,0,0],"id":2,"left_children":[1,3,5,7,9,11,13,15,17,19,21,23,25,27,29,31,33,35,37,39,41,43,45,47,49,51,53,55,57,59,61,-1,-1,-1,-1,-1,-1,-1,-1,-1,-1,-1,-1,-1,-1,-1,-1,-1,-1,-1,-1,-1,-1,-1,-1,-1,-1,-1,-1,-1,-1,-1,-1],"loss_changes":[6.1477264E2,1.904484E2,2.1287622E2,7.0521515E1,7.667389E1,1.0200183E2,1.0930089E2,2.1798607E1,2.4684736E1,2.4174591E1,3.1386826E1,5.49766E1,4.124994E1,8.256726E1,4.7884003E1,7.5860343E0,1.6654236E1,4.9371834E0,1.4675326E1,2.2606506E1,2.5694914E0,1.205117E1,3.450355E1,1.8994532E1,2.7171715E1,1.453796E1,2.4420105E1,2.5457375E1,8.163073E0,2.1494522E1,2.0553307E1,0E0,0E0,0E0,0E0,0E0,0E0,0E0,0E0,0E0,0E0,0E0,0E0,0E0,0E0,0E0,0E0,0E0,0E0,0E0,0E0,0E0,0E0,0E0,0E0,0E0,0E0,0E0,0E0,0E0,0E0,0E0,0E0],"parents":[2147483647,0,0,1,1,2,2,3,3,4,4,5,5,6,6,7,7,8,8,9,9,10,10,11,11,12,12,13,13,14,14,15,15,16,16,17,17,18,18,19,19,20,20,21,21,22,22,23,23,24,24,25,25,26,26,27,27,28,28,29,29,30,30],"right_children":[2,4,6,8,10,12,14,16,18,20,22,24,26,28,30,32,34,36,38,40,42,44,46,48,50,52,54,56,58,60,62,-1,-1,-1,-1,-1,-1,-1,-1,-1,-1,-1,-1,-1,-1,-1,-1,-1,-1,-1,-1,-1,-1,-1,-1,-1,-1,-1,-1,-1,-1,-1,-1],"split_conditions":[3.1845E2,1.5384616E-1,1.5617468E2,1.2407569E2,3.0542E2,3.38E2,8.059E1,3.27E0,3.88E-2,2.6225293E2,8.238E1,6.168E1,-2.443E-1,3.6115E2,3.43E2,3.73E1,2.98181E2,1E0,3.0088E2,4.6E1,1.1E1,2.8320858E0,2.15222E0,1E0,-3.1368E-1,6.881E1,7.692308E-1,3.4211E2,3.6815E2,1.9716484E2,1E0,-4.8854005E-2,1.0656619E-2,-3.8057525E-2,-9.3434684E-2,3.7844643E-2,8.450593E-2,2.3803186E-2,-2.2211527E-2,4.167148E-2,7.043026E-2,-6.981413E-2,5.7843804E-2,5.725993E-2,2.783115E-2,-6.438742E-4,5.037287E-2,-8.203965E-3,4.3333367E-2,4.0808455E-3,-5.1353592E-2,-4.357698E-2,1.971802E-2,-8.8160865E-2,-4.968346E-2,5.8143705E-2,1.9672297E-2,-1.2360333E-2,-5.8070034E-2,-2.1617927E-2,2.6330827E-2,-5.813671E-2,4.2163115E-2],"split_indices":[0,12,19,19,0,0,16,65,22,19,16,16,22,0,0,16,0,49,0,46,2,64,54,14,22,16,12,0,0,19,10,0,0,0,0,0,0,0,0,0,0,0,0,0,0,0,0,0,0,0,0,0,0,0,0,0,0,0,0,0,0,0,0],"split_type":[0,0,0,0,0,0,0,0,0,0,0,0,0,0,0,0,0,0,0,0,0,0,0,0,0,0,0,0,0,0,0,0,0,0,0,0,0,0,0,0,0,0,0,0,0,0,0,0,0,0,0,0,0,0,0,0,0,0,0,0,0,0,0],"sum_hessian":[7.263E3,3.354E3,3.909E3,7.31E2,2.623E3,2.298E3,1.611E3,3.16E2,4.15E2,1.352E3,1.271E3,1.139E3,1.159E3,8.55E2,7.56E2,9.5E1,2.21E2,1.31E2,2.84E2,1.336E3,1.6E1,5.67E2,7.04E2,4.51E2,6.88E2,2.86E2,8.73E2,6.94E2,1.61E2,3.85E2,3.71E2,3.1E1,6.4E1,1.09E2,1.12E2,1.01E2,3E1,1.17E2,1.67E2,3.93E2,9.43E2,1.5E1,1E0,3.06E2,2.61E2,5.28E2,1.76E2,3.63E2,8.8E1,1.04E2,5.84E2,2.44E2,4.2E1,6.45E2,2.28E2,3.72E2,3.22E2,6.8E1,9.3E1,2.28E2,1.57E2,3.5E2,2.1E1],"tree_param":{"num_deleted":"0","num_feature":"67","num_nodes":"63","size_leaf_vector":"1"}},{"base_weights":[-2.2825508E-4,3.3542365E-1,-2.1971919E-1,-4.559829E-2,4.2117292E-1,-3.7411636E-1,2.1575406E-2,2.923954E-1,-2.5670534E-1,5.758081E-1,3.1017232E-1,-1.9803417E-1,-6.011944E-1,2.606419E-1,-2.2002098E-1,-9.945813E-2,4.2968288E-1,-5.852944E-1,3.3919964E-2,6.255744E-1,1.658947E-1,5.1097965E-1,1.8871903E-1,4.751422E-2,-3.4875017E-1,5.7817567E-2,-6.505978E-1,5.2260095E-1,1.3888781E-2,-2.6817234E-2,-4.7049424E-1,-2.1256387E-2,5.7747044E-2,1.4493482E-2,6.7099296E-2,-1.829498E-2,-7.1551986E-2,5.097399E-2,-5.6329216E-3,4.4186343E-2,6.9719106E-2,1.6202873E-3,7.503172E-2,5.393654E-2,-8.4638126E-2,-7.569266E-3,4.0263437E-2,-4.075984E-3,4.2851944E-2,-8.212032E-2,-2.48103E-2,4.4569336E-2,-1.1705465E-2,-7.043653E-2,-5.675908E-3,5.475151E-2,-6.787479E-2,-1.1104013E-2,3.8966693E-2,1.5751226E-2,-3.9988924E-2,-5.3955473E-2,1.7309865E-2],"categories":[],"categories_nodes":[],"categories_segments":[],"categories_sizes":[],"default_left":[0,0,0,0,0,0,0,0,0,0,0,0,0,0,0,0,0,0,0,0,0,0,0,0,0,0,0,0,0,0,0,0,0,0,0,0,0,0,0,0,0,0,0,0,0,0,0,0,0,0,0,0,0,0,0,0,0,0,0,0,0,0,0],"id":3,"left_children":[1,3,5,7,9,11,13,15,17,19,21,23,25,27,29,31,33,35,37,39,41,43,45,47,49,51,53,55,57,59,61,-1,-1,-1,-1,-1,-1,-1,-1,-1,-1,-1,-1,-1,-1,-1,-1,-1,-1,-1,-1,-1,-1,-1,-1,-1,-1,-1,-1,-1,-1,-1,-1],"loss_changes":[5.386937E2,9.4474945E1,1.6471332E2,3.8034775E1,4.0329865E1,1.0767886E2,9.974697E1,1.1071035E1,3.134264E1,1.9990112E1,3.3462433E1,5.6268837E1,3.8357758E1,5.6099575E1,4.155643E1,4.2572327E0,1.0347063E1,7.9379997E0,7.5436263E0,1.1243561E1,9.436037E0,2.0414948E1,4.861699E1,1.9490902E1,4.458938E1,5.6819515E0,3.4922546E1,1.2972397E1,2.1074875E1,3.3484318E1,1.6716507E1,0E0,0E0,0E0,0E0,0E0,0E0,0E0,0E0,0E0,0E0,0E0,0E0,0E0,0E0,0E0,0E0,0E0,0E0,0E0,0E0,0E0,0E0,0E0,0E0,0E0,0E0,0E0,0E0,0E0,0E0,0E0,0E0],"parents":[2147483647,0,0,1,1,2,2,3,3,4,4,5,5,6,6,7,7,8,8,9,9,10,10,11,11,12,12,13,13,14,14,15,15,16,16,17,17,18,18,19,19,20,20,21,21,22,22,23,23,24,24,25,25,26,26,27,27,28,28,29,29,30,30],"right_children":[2,4,6,8,10,12,14,16,18,20,22,24,26,28,30,32,34,36,38,40,42,44,46,48,50,52,54,56,58,60,62,-1,-1,-1,-1,-1,-1,-1,-1,-1,-1,-1,-1,-1,-1,-1,-1,-1,-1,-1,-1,-1,-1,-1,-1,-1,-1,-1,-1,-1,-1,-1,-1],"split_conditions":[3.138E2,6.8059E1,1.5617468E2,3.88E-2,3.0088E2,3.38E2,3.4211E2,-3.36E-2,1.2610258E2,4E0,7.137E1,6.168E1,-1.2804E0,8.059E1,8.059E1,7E0,2.699E1,2.8819E2,2.93E2,4.6E1,1.44912E2,1.8E1,7.7338367E0,1E0,4E0,1.73E0,5E0,5E0,1.335E1,3.6315E2,2.411E1,-2.1256387E-2,5.7747044E-2,1.4493482E-2,6.7099296E-2,-1.829498E-2,-7.1551986E-2,5.097399E-2,-5.6329216E-3,4.4186343E-2,6.9719106E-2,1.6202873E-3,7.503172E-2,5.393654E-2,-8.4638126E-2,-7.569266E-3,4.0263437E-2,-4.075984E-3,4.2851944E-2,-8.212032E-2,-2.48103E-2,4.4569336E-2,-1.1705465E-2,-7.043653E-2,-5.675908E-3,5.475151E-2,-6.787479E-2,-1.1104013E-2,3.8966693E-2,1.5751226E-2,-3.9988924E-2,-5.3955473E-2,1.7309865E-2],"split_indices":[0,57,19,22,0,0,0,23,19,24,16,16,22,16,16,5,16,0,0,46,57,3,66,14,43,65,24,44,66,0,48,0,0,0,0,0,0,0,0,0,0,0,0,0,0,0,0,0,0,0,0,0,0,0,0,0,0,0,0,0,0,0,0],"split_type":[0,0,0,0,0,0,0,0,0,0,0,0,0,0,0,0,0,0,0,0,0,0,0,0,0,0,0,0,0,0,0,0,0,0,0,0,0,0,0,0,0,0,0,0,0,0,0,0,0,0,0,0,0,0,0,0,0,0,0,0,0,0,0],"sum_hessian":[7.31E3,2.89E3,4.42E3,5.31E2,2.359E3,2.695E3,1.725E3,2.04E2,3.27E2,9.84E2,1.375E3,1.519E3,1.176E3,8.67E2,8.58E2,5.3E1,1.51E2,1.53E2,1.74E2,8.77E2,1.07E2,5.17E2,8.58E2,5.78E2,9.41E2,8.2E1,1.094E3,4.2E2,4.47E2,4.85E2,3.73E2,4.6E1,7E0,7E1,8.1E1,3.8E1,1.15E2,2.7E1,1.47E2,2.48E2,6.29E2,8.6E1,2.1E1,5.07E2,1E1,3.84E2,4.74E2,4.7E2,1.08E2,1.64E2,7.77E2,2.5E1,5.7E1,1.003E3,9.1E1,4.12E2,8E0,3.36E2,1.11E2,3.25E2,1.6E2,3.37E2,3.6E1],"tree_param":{"num_deleted":"0","num_feature":"67","num_nodes":"63","size_leaf_vector":"1"}},{"base_weights":[4.972504E-3,1.9369517E-1,-3.0533686E-1,-1.3164505E-1,2.7929053E-1,-4.3765843E-1,3.4556907E-2,-2.9187098E-1,3.1444794E-1,4.5917246E-1,1.10857554E-1,-5.2776915E-1,-1.0537886E-1,1.9352601E-1,-2.929053E-1,1.944813E-2,-4.8244607E-1,9.751238E-2,7.082238E-1,4.712146E-1,-5.4957455E-1,3.260287E-1,-2.5514754E-2,-5.9295183E-1,-6.098799E-2,2.576364E-1,-2.2193678E-1,4.0232983E-1,-7.6302156E-2,4.0885714E-1,-3.4496784E-1,2.4315001E-2,-2.2363007E-2,-2.9376453E-2,-7.9938784E-2,5.103157E-2,-1.5244425E-3,6.434012E-2,9.281685E-2,3.3489972E-2,5.5424716E-2,-7.1766414E-2,6.981843E-2,2.415189E-2,7.565576E-2,-2.5661627E-2,1.3757259E-2,-2.8418366E-2,-6.822713E-2,-5.021531E-2,1.3700376E-2,3.790883E-2,-4.3404203E-2,-4.111204E-2,1.4309064E-2,3.213795E-2,5.4790806E-2,-2.9067723E-2,9.816188E-3,6.280297E-2,2.1229004E-2,-2.1987364E-2,-5.5427648E-2],"categories":[],"categories_nodes":[],"categories_segments":[],"categories_sizes":[],"default_left":[0,0,0,0,0,0,0,0,0,0,0,0,0,0,0,0,0,0,0,0,0,0,0,0,0,0,0,0,0,0,0,0,0,0,0,0,0,0,0,0,0,0,0,0,0,0,0,0,0,0,0,0,0,0,0,0,0,0,0,0,0,0,0],"id":4,"left_children":[1,3,5,7,9,11,13,15,17,19,21,23,25,27,29,31,33,35,37,39,41,43,45,47,49,51,53,55,57,59,61,-1,-1,-1,-1,-1,-1,-1,-1,-1,-1,-1,-1,-1,-1,-1,-1,-1,-1,-1,-1,-1,-1,-1,-1,-1,-1,-1,-1,-1,-1,-1,-1],"loss_changes":[4.2832605E2,1.2668768E2,1.2441675E2,6.7850716E1,1.090524E2,5.9558807E1,4.0452435E1,4.1421486E1,2.137236E1,2.1407715E1,5.4616356E1,4.7611023E1,1.808222E1,2.9497122E1,9.421066E0,1.4518671E1,2.5659027E1,7.594839E0,6.717186E-1,1.929364E1,4.9055033E0,2.6086464E1,4.3001595E1,3.7699615E1,1.692678E1,8.901128E0,2.2364302E1,3.300377E0,8.593302E0,6.4215374E-1,6.0835705E0,0E0,0E0,0E0,0E0,0E0,0E0,0E0,0E0,0E0,0E0,0E0,0E0,0E0,0E0,0E0,0E0,0E0,0E0,0E0,0E0,0E0,0E0,0E0,0E0,0E0,0E0,0E0,0E0,0E0,0E0,0E0,0E0],"parents":[2147483647,0,0,1,1,2,2,3,3,4,4,5,5,6,6,7,7,8,8,9,9,10,10,11,11,12,12,13,13,14,14,15,15,16,16,17,17,18,18,19,19,20,20,21,21,22,22,23,23,24,24,25,25,26,26,27,27,28,28,29,29,30,30],"right_children":[2,4,6,8,10,12,14,16,18,20,22,24,26,28,30,32,34,36,38,40,42,44,46,48,50,52,54,56,58,60,62,-1,-1,-1,-1,-1,-1,-1,-1,-1,-1,-1,-1,-1,-1,-1,-1,-1,-1,-1,-1,-1,-1,-1,-1,-1,-1,-1,-1,-1,-1,-1,-1],"split_conditions":[3.325E2,1.5384616E-1,1.9311743E2,1.4413829E2,3.0835E2,8.181818E-1,3.532E2,2.98202E2,6E-1,1.5E1,4E0,1.907E1,5.692E-1,5E0,-2.5556E0,2.6205833E0,2.8320858E0,3.47E0,3.874775E0,1.03102E0,2.5E1,1.44962E2,7.456952E0,-2.1784E-1,2.7272728E-1,3.7315E2,1.61268E0,1.3456E0,1.7E1,8.6804E1,3.6815E2,2.4315001E-2,-2.2363007E-2,-2.9376453E-2,-7.9938784E-2,5.103157E-2,-1.5244425E-3,6.434012E-2,9.281685E-2,3.3489972E-2,5.5424716E-2,-7.1766414E-2,6.981843E-2,2.415189E-2,7.565576E-2,-2.5661627E-2,1.3757259E-2,-2.8418366E-2,-6.822713E-2,-5.021531E-2,1.3700376E-2,3.790883E-2,-4.3404203E-2,-4.111204E-2,1.4309064E-2,3.213795E-2,5.4790806E-2,-2.9067723E-2,9.816188E-3,6.280297E-2,2.1229004E-2,-2.1987364E-2,-5.5427648E-2],"split_indices":[0,12,19,19,0,12,0,0,13,15,6,17,22,6,22,64,64,65,64,54,5,57,66,22,12,0,22,22,5,57,0,0,0,0,0,0,0,0,0,0,0,0,0,0,0,0,0,0,0,0,0,0,0,0,0,0,0,0,0,0,0,0,0],"split_type":[0,0,0,0,0,0,0,0,0,0,0,0,0,0,0,0,0,0,0,0,0,0,0,0,0,0,0,0,0,0,0,0,0,0,0,0,0,0,0,0,0,0,0,0,0,0,0,0,0,0,0,0,0,0,0,0,0,0,0,0,0,0,0],"sum_hessian":[7.312E3,4.547E3,2.765E3,9.47E2,3.6E3,1.99E3,7.75E2,6.97E2,2.5E2,1.74E3,1.86E3,1.565E3,4.25E2,5.22E2,2.53E2,2.65E2,4.32E2,1.62E2,8.8E1,1.72E3,2E1,7.21E2,1.139E3,1.373E3,1.92E2,1.03E2,3.22E2,2.94E2,2.28E2,1.7E1,2.36E2,1.38E2,1.27E2,2.72E2,1.6E2,3.4E1,1.28E2,7.1E1,1.7E1,6.53E2,1.067E3,1.8E1,2E0,6.04E2,1.17E2,4.71E2,6.68E2,3.09E2,1.064E3,5.9E1,1.33E2,8.8E1,1.5E1,2.12E2,1.1E2,1.91E2,1.03E2,1.02E2,1.26E2,7E0,1E1,1.49E2,8.7E1],"tree_param":{"num_deleted":"0","num_feature":"67","num_nodes":"63","size_leaf_vector":"1"}},{"base_weights":[1.6605261E-3,2.7001885E-1,-1.7516275E-1,-6.413363E-2,3.6180365E-1,-2.6734126E-1,1.143847E-1,-3.663288E-1,1.3353233E-1,5.004494E-1,2.6537663E-1,-1.3645355E-1,-4.9346384E-1,3.287037E-1,-1.7115624E-1,-4.3626472E-1,5.0322545E-1,8.273541E-2,7.043769E-2,5.138749E-1,-4.9331763E-1,4.3514794E-1,1.8290186E-1,-2.1917921E-1,2.1582486E-1,-3.3163813E-1,-6.617278E-1,5.457307E-1,1.8683791E-1,1.26261E-1,-3.1451568E-1,-1.8253835E-2,-5.7732385E-2,6.706908E-2,2.8601966E-3,4.9269624E-2,8.1695773E-4,3.5661925E-2,5.7917267E-2,-6.14586E-2,-3.0157527E-2,-6.5540925E-2,4.5424774E-2,6.74602E-3,4.000548E-2,1.1596011E-2,-3.0530978E-2,1.5308984E-3,4.9291853E-2,3.7720364E-2,-3.791331E-2,-7.142043E-2,3.685787E-4,6.893981E-2,4.6009135E-2,1.1593579E-2,6.504001E-2,5.794334E-2,3.962793E-3,-3.468428E-2,2.291712E-2],"categories":[],"categories_nodes":[],"categories_segments":[],"categories_sizes":[],"default_left":[0,0,0,0,0,0,0,0,0,0,0,0,0,0,0,0,0,0,0,0,0,0,0,0,0,0,0,0,0,0,0,0,0,0,0,0,0,0,0,0,0,0,0,0,0,0,0,0,0,0,0,0,0,0,0,0,0,0,0,0,0],"id":5,"left_children":[1,3,5,7,9,11,13,15,17,19,21,23,25,27,29,31,33,35,-1,37,39,41,43,45,47,49,51,53,55,57,59,-1,-1,-1,-1,-1,-1,-1,-1,-1,-1,-1,-1,-1,-1,-1,-1,-1,-1,-1,-1,-1,-1,-1,-1,-1,-1,-1,-1,-1,-1],"loss_changes":[3.4825003E2,8.9426636E1,1.18107376E2,3.762141E1,3.0442566E1,9.925905E1,6.547569E1,1.5361996E1,1.0989635E1,1.2754715E1,1.8836922E1,6.2033325E1,3.3272766E1,1.8709946E1,1.9610357E1,8.162205E0,1.490994E0,1.07257185E1,0E0,9.291779E0,1.1693597E-1,9.483482E0,2.2810406E1,4.9771065E1,2.2494932E1,2.1319183E1,2.102359E1,2.647972E0,1.2118451E1,5.8659954E0,5.527996E0,0E0,0E0,0E0,0E0,0E0,0E0,0E0,0E0,0E0,0E0,0E0,0E0,0E0,0E0,0E0,0E0,0E0,0E0,0E0,0E0,0E0,0E0,0E0,0E0,0E0,0E0,0E0,0E0,0E0,0E0],"parents":[2147483647,0,0,1,1,2,2,3,3,4,4,5,5,6,6,7,7,8,8,9,9,10,10,11,11,12,12,13,13,14,14,15,15,16,16,17,17,19,19,20,20,21,21,22,22,23,23,24,24,25,25,26,26,27,27,28,28,29,29,30,30],"right_children":[2,4,6,8,10,12,14,16,18,20,22,24,26,28,30,32,34,36,-1,38,40,42,44,46,48,50,52,54,56,58,60,-1,-1,-1,-1,-1,-1,-1,-1,-1,-1,-1,-1,-1,-1,-1,-1,-1,-1,-1,-1,-1,-1,-1,-1,-1,-1,-1,-1,-1,-1],"split_conditions":[3.138E2,1.5384616E-1,7.6E1,3.846154E-1,3.0088E2,3.385E2,3.479E2,1E0,2.20132E0,1.2E1,7.239529E0,8.095238E-1,4.458227E0,7.47E0,4.4125543E0,2.94199E2,3.0331E2,2.93E2,7.043769E-2,4.6E1,6E0,7.607569E1,1.9465E0,-3.1368E-1,8.704515E1,4.4998203E1,2.764E1,3.325E2,2.6E1,-2.9441E0,4.2906308E2,-1.8253835E-2,-5.7732385E-2,6.706908E-2,2.8601966E-3,4.9269624E-2,8.1695773E-4,3.5661925E-2,5.7917267E-2,-6.14586E-2,-3.0157527E-2,-6.5540925E-2,4.5424774E-2,6.74602E-3,4.000548E-2,1.1596011E-2,-3.0530978E-2,1.5308984E-3,4.9291853E-2,3.7720364E-2,-3.791331E-2,-7.142043E-2,3.685787E-4,6.893981E-2,4.6009135E-2,1.1593579E-2,6.504001E-2,5.794334E-2,3.962793E-3,-3.468428E-2,2.291712E-2],"split_indices":[0,12,46,13,0,0,0,26,23,15,65,12,63,65,63,0,0,0,0,46,4,19,23,55,18,18,60,0,3,55,19,0,0,0,0,0,0,0,0,0,0,0,0,0,0,0,0,0,0,0,0,0,0,0,0,0,0,0,0,0,0],"split_type":[0,0,0,0,0,0,0,0,0,0,0,0,0,0,0,0,0,0,0,0,0,0,0,0,0,0,0,0,0,0,0,0,0,0,0,0,0,0,0,0,0,0,0,0,0,0,0,0,0,0,0,0,0,0,0,0,0,0,0,0,0],"sum_hessian":[7.337E3,2.914E3,4.423E3,6.28E2,2.286E3,3.355E3,1.068E3,2.48E2,3.8E2,9.36E2,1.35E3,2.126E3,1.229E3,6.1E2,4.58E2,2.3E2,1.8E1,3.5E2,3E1,9.24E2,1.2E1,4.4E2,9.1E2,1.722E3,4.04E2,6.28E2,6.01E2,2.4E2,3.7E2,1.49E2,3.09E2,8.3E1,1.47E2,1.3E1,5E0,5.3E1,2.97E2,2.73E2,6.51E2,6E0,6E0,7E0,4.33E2,5.95E2,3.15E2,3.52E2,1.37E3,2.35E2,1.69E2,3.9E1,5.89E2,5.57E2,4.4E1,8.7E1,1.53E2,3.22E2,4.8E1,2.3E1,1.26E2,2.92E2,1.7E1],"tree_param":{"num_deleted":"0","num_feature":"67","num_nodes":"61","size_leaf_vector":"1"}},{"base_weights":[-2.487976E-4,2.1280184E-1,-1.8443796E-1,-5.0324816E-2,2.8252116E-1,-3.1072918E-1,-6.8634623E-3,2.1435757E-1,-2.5584164E-1,4.3937027E-1,1.9472948E-1,-6.8470165E-2,-3.8670078E-1,1.7603606E-1,-2.1450908E-1,3.236944E-1,-4.824162E-2,-6.974065E-2,-4.6433938E-1,2.5866002E-1,5.156259E-1,3.8646647E-1,8.561385E-2,-2.6541567E-1,1.5240474E-1,-4.1849348E-1,2.138067E-1,2.80149E-1,-2.8030896E-1,-7.623315E-2,-4.6282047E-1,5.9155086E-3,5.258886E-2,-7.875366E-2,1.1776174E-2,1.0891386E-2,-3.1312693E-2,-5.0634563E-2,8.9424156E-2,6.891751E-2,6.066498E-3,7.1465425E-2,4.6656992E-2,2.637667E-2,6.0124576E-2,-1.3688871E-3,4.4823267E-2,-3.688382E-2,6.9682696E-3,7.047786E-4,4.2365942E-2,-4.5505673E-2,6.00653E-3,3.7743296E-2,-2.1362873E-2,1.0213178E-2,3.9334573E-2,-1.0581799E-2,-4.6928853E-2,-1.6730646E-2,3.0921726E-2,3.8579952E-2,-5.2090805E-2],"categories":[],"categories_nodes":[],"categories_segments":[],"categories_sizes":[],"default_left":[0,0,0,0,0,0,0,0,0,0,0,0,0,0,0,0,0,0,0,0,0,0,0,0,0,0,0,0,0,0,0,0,0,0,0,0,0,0,0,0,0,0,0,0,0,0,0,0,0,0,0,0,0,0,0,0,0,0,0,0,0,0,0],"id":6,"left_children":[1,3,5,7,9,11,13,15,17,19,21,23,25,27,29,31,33,35,37,39,41,43,45,47,49,51,53,55,57,59,61,-1,-1,-1,-1,-1,-1,-1,-1,-1,-1,-1,-1,-1,-1,-1,-1,-1,-1,-1,-1,-1,-1,-1,-1,-1,-1,-1,-1,-1,-1,-1,-1],"loss_changes":[2.8571823E2,6.1947006E1,8.757179E1,3.8567696E1,3.6666687E1,4.197328E1,6.171449E1,8.916263E0,1.5449467E1,1.305423E1,3.580545E1,2.3791626E1,3.325183E1,4.1128403E1,2.6094025E1,1.1682833E1,1.1383482E1,9.252299E0,1.1181755E1,2.4336792E1,6.227661E0,1.6206856E1,3.9364006E1,1.0041489E1,1.0169632E1,2.8898468E1,6.23532E0,1.4146111E1,5.2593536E0,1.7252813E1,1.360902E1,0E0,0E0,0E0,0E0,0E0,0E0,0E0,0E0,0E0,0E0,0E0,0E0,0E0,0E0,0E0,0E0,0E0,0E0,0E0,0E0,0E0,0E0,0E0,0E0,0E0,0E0,0E0,0E0,0E0,0E0,0E0,0E0],"parents":[2147483647,0,0,1,1,2,2,3,3,4,4,5,5,6,6,7,7,8,8,9,9,10,10,11,11,12,12,13,13,14,14,15,15,16,16,17,17,18,18,19,19,20,20,21,21,22,22,23,23,24,24,25,25,26,26,27,27,28,28,29,29,30,30],"right_children":[2,4,6,8,10,12,14,16,18,20,22,24,26,28,30,32,34,36,38,40,42,44,46,48,50,52,54,56,58,60,62,-1,-1,-1,-1,-1,-1,-1,-1,-1,-1,-1,-1,-1,-1,-1,-1,-1,-1,-1,-1,-1,-1,-1,-1,-1,-1,-1,-1,-1,-1,-1,-1],"split_conditions":[3.1845E2,2.8607817E0,1E1,3.88E-2,2.9997E2,-2.391E-1,8.059E1,1E0,2.6205833E0,7E0,7.137E1,3.846154E-1,2.946E1,3.6315E2,3.479E2,2.699E1,6.25E0,3.0719E2,3.761922E0,-3.876E-1,2.93E2,1.1192E0,2.15222E0,1E0,1.4585E1,1.8237E0,3.48196E2,9.4980835E1,3.7297E2,4.3675E0,3.6376824E0,5.9155086E-3,5.258886E-2,-7.875366E-2,1.1776174E-2,1.0891386E-2,-3.1312693E-2,-5.0634563E-2,8.9424156E-2,6.891751E-2,6.066498E-3,7.1465425E-2,4.6656992E-2,2.637667E-2,6.0124576E-2,-1.3688871E-3,4.4823267E-2,-3.688382E-2,6.9682696E-3,7.047786E-4,4.2365942E-2,-4.5505673E-2,6.00653E-3,3.7743296E-2,-2.1362873E-2,1.0213178E-2,3.9334573E-2,-1.0581799E-2,-4.6928853E-2,-1.6730646E-2,3.0921726E-2,3.8579952E-2,-5.2090805E-2],"split_indices":[0,63,25,22,0,22,16,11,64,25,16,13,17,0,0,16,17,0,64,22,0,23,23,10,20,22,0,18,0,23,63,0,0,0,0,0,0,0,0,0,0,0,0,0,0,0,0,0,0,0,0,0,0,0,0,0,0,0,0,0,0,0,0],"split_type":[0,0,0,0,0,0,0,0,0,0,0,0,0,0,0,0,0,0,0,0,0,0,0,0,0,0,0,0,0,0,0,0,0,0,0,0,0,0,0,0,0,0,0,0,0,0,0,0,0,0,0,0,0,0,0,0,0,0,0,0,0,0,0],"sum_hessian":[7.279E3,3.375E3,3.904E3,7.07E2,2.668E3,2.281E3,1.623E3,3.09E2,3.98E2,9.56E2,1.712E3,5.45E2,1.736E3,8.63E2,7.6E2,2.18E2,9.1E1,2.11E2,1.87E2,2.85E2,6.71E2,6.2E2,1.092E3,2.88E2,2.57E2,1.649E3,8.7E1,7.03E2,1.6E2,4.89E2,2.71E2,9.5E1,1.23E2,1.6E1,7.5E1,1.22E2,8.9E1,1.82E2,5E0,8.9E1,1.96E2,1.3E2,5.41E2,3.96E2,2.24E2,8.58E2,2.34E2,2.2E2,6.8E1,1.68E2,8.9E1,1.532E3,1.17E2,6.3E1,2.4E1,2.74E2,4.29E2,8.4E1,7.6E1,3.96E2,9.3E1,1.7E1,2.54E2],"tree_param":{"num_deleted":"0","num_feature":"67","num_nodes":"63","size_leaf_vector":"1"}},{"base_weights":[8.720897E-4,1.4311399E-1,-2.2752662E-1,-5.4328E-2,2.1689281E-1,-3.2795754E-1,3.5024066E-2,2.749735E-1,-2.3641716E-1,3.765406E-1,1.2297736E-1,-1.9831307E-1,-4.6248424E-1,1.541743E-1,-2.3221695E-1,4.8582602E-1,4.6829026E-2,-2.8188878E-1,5.0516486E-1,1.405279E-1,4.1829598E-1,3.0903527E-1,4.261929E-2,-3.544032E-1,4.1459087E-2,-5.151064E-1,1.4582014E-1,3.2884234E-1,-3.3850953E-2,-3.0365172E-1,5.984822E-2,1.4269813E-2,6.47551E-2,-2.9663553E-3,5.09323E-2,2.47349E-3,-3.906458E-2,3.8167033E-3,5.7426035E-2,2.226073E-2,-3.904012E-2,5.541677E-2,3.51811E-2,2.4991361E-2,6.85424E-2,-1.9428645E-3,4.8122305E-2,4.371601E-2,-4.1930087E-2,2.1531044E-2,-1.765605E-2,-4.1396823E-2,-6.680414E-2,-1.5973983E-2,3.423936E-2,1.8129444E-2,3.9587338E-2,-1.1031819E-2,4.1578177E-2,-2.3160616E-2,-4.9970794E-2,4.3491136E-2,-2.6037188E-3],"categories":[],"categories_nodes":[],"categories_segments":[],"categories_sizes":[],"default_left":[0,0,0,0,0,0,0,0,0,0,0,0,0,0,0,0,0,0,0,0,0,0,0,0,0,0,0,0,0,0,0,0,0,0,0,0,0,0,0,0,0,0,0,0,0,0,0,0,0,0,0,0,0,0,0,0,0,0,0,0,0,0,0],"id":7,"left_children":[1,3,5,7,9,11,13,15,17,19,21,23,25,27,29,31,33,35,37,39,41,43,45,47,49,51,53,55,57,59,61,-1,-1,-1,-1,-1,-1,-1,-1,-1,-1,-1,-1,-1,-1,-1,-1,-1,-1,-1,-1,-1,-1,-1,-1,-1,-1,-1,-1,-1,-1,-1,-1],"loss_changes":[2.374539E2,6.5621704E1,7.397432E1,7.357871E1,4.911705E1,3.5295334E1,2.4776901E1,2.0999062E1,2.678194E1,1.1904953E1,3.0876116E1,3.875067E1,3.1925323E1,1.7680128E1,5.02544E0,1.250436E1,7.4797306E0,2.4853527E1,1.4623852E0,8.105318E0,9.1185E0,1.3692146E1,3.9307026E1,3.2392654E1,1.5540342E1,1.3891769E1,4.859891E0,2.687622E0,8.985232E0,2.610386E0,1.5575213E0,0E0,0E0,0E0,0E0,0E0,0E0,0E0,0E0,0E0,0E0,0E0,0E0,0E0,0E0,0E0,0E0,0E0,0E0,0E0,0E0,0E0,0E0,0E0,0E0,0E0,0E0,0E0,0E0,0E0,0E0,0E0,0E0],"parents":[2147483647,0,0,1,1,2,2,3,3,4,4,5,5,6,6,7,7,8,8,9,9,10,10,11,11,12,12,13,13,14,14,15,15,16,16,17,17,18,18,19,19,20,20,21,21,22,22,23,23,24,24,25,25,26,26,27,27,28,28,29,29,30,30],"right_children":[2,4,6,8,10,12,14,16,18,20,22,24,26,28,30,32,34,36,38,40,42,44,46,48,50,52,54,56,58,60,62,-1,-1,-1,-1,-1,-1,-1,-1,-1,-1,-1,-1,-1,-1,-1,-1,-1,-1,-1,-1,-1,-1,-1,-1,-1,-1,-1,-1,-1,-1,-1,-1],"split_conditions":[3.325E2,1.14193E2,1.93316E2,-3.1368E-1,3.0542E2,4.458227E0,3.5787E2,3.0835E2,3E0,2.8607817E0,6.168E1,9.6960106E1,2.602E1,4.458227E0,3.6173892E0,1.33098E1,3E0,2.9615E2,1E0,2.6148999E0,2.94199E2,1.8237E0,6.49804E1,2E0,3.43202E2,3.43202E2,1.50245E2,9.4980835E1,9.23E0,3.33086E1,2E0,1.4269813E-2,6.47551E-2,-2.9663553E-3,5.09323E-2,2.47349E-3,-3.906458E-2,3.8167033E-3,5.7426035E-2,2.226073E-2,-3.904012E-2,5.541677E-2,3.51811E-2,2.4991361E-2,6.85424E-2,-1.9428645E-3,4.8122305E-2,4.371601E-2,-4.1930087E-2,2.1531044E-2,-1.765605E-2,-4.1396823E-2,-6.680414E-2,-1.5973983E-2,3.423936E-2,1.8129444E-2,3.9587338E-2,-1.1031819E-2,4.1578177E-2,-2.3160616E-2,-4.9970794E-2,4.3491136E-2,-2.6037188E-3],"split_indices":[0,58,58,22,0,63,0,0,14,63,16,18,17,63,64,20,24,0,15,64,0,22,62,6,0,0,58,18,17,20,24,0,0,0,0,0,0,0,0,0,0,0,0,0,0,0,0,0,0,0,0,0,0,0,0,0,0,0,0,0,0,0,0],"split_type":[0,0,0,0,0,0,0,0,0,0,0,0,0,0,0,0,0,0,0,0,0,0,0,0,0,0,0,0,0,0,0,0,0,0,0,0,0,0,0,0,0,0,0,0,0,0,0,0,0,0,0,0,0,0,0,0,0,0,0,0,0,0,0],"sum_hessian":[7.307E3,4.503E3,2.804E3,1.225E3,3.278E3,2.028E3,7.76E2,4.36E2,7.89E2,1.213E3,2.065E3,1.034E3,9.94E2,5.37E2,2.39E2,2.26E2,2.1E2,7.44E2,4.5E1,1.83E2,1.03E3,6.22E2,1.443E3,6.26E2,4.08E2,9.15E2,7.9E1,2.78E2,2.59E2,1.92E2,4.7E1,7.3E1,1.53E2,1.81E2,2.9E1,1.95E2,5.49E2,6E0,3.9E1,1.59E2,2.4E1,3.36E2,6.94E2,5.39E2,8.3E1,1.265E3,1.78E2,4.7E1,5.79E2,2.27E2,1.81E2,5.53E2,3.62E2,3.1E1,4.8E1,8.8E1,1.9E2,2.22E2,3.7E1,1.42E2,5E1,8E0,3.9E1],"tree_param":{"num_deleted":"0","num_feature":"67","num_nodes":"63","size_leaf_vector":"1"}},{"base_weights":[-5.4700077E-3,2.022943E-1,-1.411316E-1,-6.34898E-2,2.7780786E-1,-2.5179982E-1,2.099861E-2,-2.8403434E-1,8.370395E-2,4.4678017E-1,2.3622486E-1,-3.1842467E-1,3.2651897E-3,1.8006167E-1,-1.505211E-1,-3.41038E-1,3.4296107E-1,2.977329E-1,-2.1986086E-2,7.907329E-2,4.828127E-1,3.8208008E-1,1.7020391E-1,-9.210337E-2,-4.0422037E-1,1.2262267E-1,-2.5467548E-1,3.4760776E-1,3.937716E-2,-2.1409953E-1,1.8537764E-1,-2.1264025E-3,-4.2642538E-2,-6.606889E-2,4.222153E-2,3.804869E-2,-2.6498351E-2,1.3892784E-2,-1.8647177E-2,-3.510883E-2,3.4074683E-2,3.648585E-2,5.497789E-2,-4.6853855E-2,3.9822165E-2,5.337265E-5,3.1205038E-2,-2.2876786E-2,1.5956959E-2,-4.3624662E-2,6.5264963E-3,-3.3156995E-3,3.7102446E-2,2.6941827E-2,-3.613523E-2,3.683386E-2,-7.86803E-2,-1.0405945E-3,7.381109E-2,-2.6734008E-2,1.2901777E-2,1.12868445E-2,6.1116405E-2],"categories":[],"categories_nodes":[],"categories_segments":[],"categories_sizes":[],"default_left":[0,0,0,0,0,0,0,0,0,0,0,0,0,0,0,0,0,0,0,0,0,0,0,0,0,0,0,0,0,0,0,0,0,0,0,0,0,0,0,0,0,0,0,0,0,0,0,0,0,0,0,0,0,0,0,0,0,0,0,0,0,0,0],"id":8,"left_children":[1,3,5,7,9,11,13,15,17,19,21,23,25,27,29,31,33,35,37,39,41,43,45,47,49,51,53,55,57,59,61,-1,-1,-1,-1,-1,-1,-1,-1,-1,-1,-1,-1,-1,-1,-1,-1,-1,-1,-1,-1,-1,-1,-1,-1,-1,-1,-1,-1,-1,-1,-1,-1],"loss_changes":[2.0741847E2,5.8362E1,7.988602E1,2.0929806E1,1.580217E1,4.4966293E1,4.932649E1,9.338146E0,8.760767E0,5.8710556E0,1.7451027E1,4.0700455E1,1.6933374E1,2.209604E1,1.8619335E1,6.4621353E0,2.02891E0,6.0614014E0,6.9075956E0,4.73467E0,3.0063858E0,7.9579544E0,3.0179993E1,1.9916672E1,2.289801E1,1.4561979E1,9.8254595E0,1.0355202E1,1.7782883E1,1.34064865E1,4.2224264E0,0E0,0E0,0E0,0E0,0E0,0E0,0E0,0E0,0E0,0E0,0E0,0E0,0E0,0E0,0E0,0E0,0E0,0E0,0E0,0E0,0E0,0E0,0E0,0E0,0E0,0E0,0E0,0E0,0E0,0E0,0E0,0E0],"parents":[2147483647,0,0,1,1,2,2,3,3,4,4,5,5,6,6,7,7,8,8,9,9,10,10,11,11,12,12,13,13,14,14,15,15,16,16,17,17,18,18,19,19,20,20,21,21,22,22,23,23,24,24,25,25,26,26,27,27,28,28,29,29,30,30],"right_children":[2,4,6,8,10,12,14,16,18,20,22,24,26,28,30,32,34,36,38,40,42,44,46,48,50,52,54,56,58,60,62,-1,-1,-1,-1,-1,-1,-1,-1,-1,-1,-1,-1,-1,-1,-1,-1,-1,-1,-1,-1,-1,-1,-1,-1,-1,-1,-1,-1,-1,-1,-1,-1],"split_conditions":[3.138E2,1.5384616E-1,8.446618E0,2E0,2.94199E2,8.125E-1,3.43E2,1E0,3.88E-2,6.666667E-1,8E0,-2.1784E-1,3.43202E2,8.059E1,3.874775E0,2.8819E2,8E0,3.437E1,3.0088E2,9E0,1.2610258E2,7.607569E1,7.44E0,8.549E-1,1.846E1,9.904515E1,8.700346E1,5E0,2.411E1,2.411E1,9.310345E-1,-2.1264025E-3,-4.2642538E-2,-6.606889E-2,4.222153E-2,3.804869E-2,-2.6498351E-2,1.3892784E-2,-1.8647177E-2,-3.510883E-2,3.4074683E-2,3.648585E-2,5.497789E-2,-4.6853855E-2,3.9822165E-2,5.337265E-5,3.1205038E-2,-2.2876786E-2,1.5956959E-2,-4.3624662E-2,6.5264963E-3,-3.3156995E-3,3.7102446E-2,2.6941827E-2,-3.613523E-2,3.683386E-2,-7.86803E-2,-1.0405945E-3,7.381109E-2,-2.6734008E-2,1.2901777E-2,1.12868445E-2,6.1116405E-2],"split_indices":[0,12,66,15,0,12,0,33,22,12,2,22,0,59,64,0,5,17,0,5,19,19,66,23,17,18,18,44,17,17,12,0,0,0,0,0,0,0,0,0,0,0,0,0,0,0,0,0,0,0,0,0,0,0,0,0,0,0,0,0,0,0,0],"split_type":[0,0,0,0,0,0,0,0,0,0,0,0,0,0,0,0,0,0,0,0,0,0,0,0,0,0,0,0,0,0,0,0,0,0,0,0,0,0,0,0,0,0,0,0,0,0,0,0,0,0,0,0,0,0,0,0,0,0,0,0,0,0,0],"sum_hessian":[7.357E3,2.906E3,4.451E3,6.43E2,2.263E3,2.645E3,1.806E3,2.57E2,3.86E2,4.45E2,1.818E3,2.097E3,5.48E2,9.37E2,8.69E2,2.36E2,2.1E1,1.27E2,2.59E2,4E1,4.05E2,5.65E2,1.253E3,5.77E2,1.52E3,3.75E2,1.73E2,4.27E2,5.1E2,7.31E2,1.38E2,5E1,1.86E2,1E0,2E1,1.11E2,1.6E1,1.31E2,1.28E2,1.5E1,2.5E1,1.49E2,2.56E2,1E1,5.55E2,5.71E2,6.82E2,3.74E2,2.03E2,1.423E3,9.7E1,2.31E2,1.44E2,2.9E1,1.44E2,4.2E2,7E0,4.77E2,3.3E1,6.33E2,9.8E1,1.19E2,1.9E1],"tree_param":{"num_deleted":"0","num_feature":"67","num_nodes":"63","size_leaf_vector":"1"}},{"base_weights":[1.3806763E-3,1.0192569E-1,-2.3622979E-1,-1.14694856E-1,1.5657051E-1,-3.3939424E-1,-3.4065362E-2,-2.3838714E-1,1.9243029E-1,2.8731757E-1,6.2817566E-2,-3.7149101E-1,7.223135E-2,4.6043095E-1,-7.000532E-2,-5.229078E-2,-3.994446E-1,4.2702097E-2,4.2698053E-1,2.959792E-1,-4.6112287E-1,2.1231903E-1,-3.4283187E-2,1.1035922E-1,-3.9781937E-1,-3.5768554E-1,2.4896726E-1,5.583115E-1,2.3758565E-1,1.00676175E-2,-2.9560003E-1,1.6704125E-2,-1.318412E-2,1.8114074E-3,-4.9072083E-2,4.3930627E-2,-5.405772E-3,4.5665614E-2,-3.072235E-3,2.6620016E-2,5.223701E-2,-6.0279947E-2,5.4264426E-2,3.393874E-3,3.1965356E-2,-7.4375607E-3,5.0234195E-2,2.2215083E-2,-3.9689254E-2,-3.1396206E-2,-5.2456494E-2,-4.596835E-2,1.4391971E-2,4.2563595E-2,-1.2139556E-2,2.0602887E-2,6.264425E-2,3.0679962E-2,1.0112191E-3,1.5270366E-2,-1.5367529E-2,-2.543368E-2,-5.6620806E-2],"categories":[],"categories_nodes":[],"categories_segments":[],"categories_sizes":[],"default_left":[0,0,0,0,0,0,0,0,0,0,0,0,0,0,0,0,0,0,0,0,0,0,0,0,0,0,0,0,0,0,0,0,0,0,0,0,0,0,0,0,0,0,0,0,0,0,0,0,0,0,0,0,0,0,0,0,0,0,0,0,0,0,0],"id":9,"left_children":[1,3,5,7,9,11,13,15,17,19,21,23,25,27,29,31,33,35,37,39,41,43,45,47,49,51,53,55,57,59,61,-1,-1,-1,-1,-1,-1,-1,-1,-1,-1,-1,-1,-1,-1,-1,-1,-1,-1,-1,-1,-1,-1,-1,-1,-1,-1,-1,-1,-1,-1,-1,-1],"loss_changes":[1.7475955E2,6.0861107E1,4.535063E1,3.940249E1,5.0300728E1,1.9051895E1,1.3112554E1,2.212857E1,1.0447163E1,1.1247879E1,3.4731236E1,1.6992828E1,8.067136E0,9.5796394E-1,1.2412964E1,6.0241194E0,1.5101719E1,7.046436E0,1.5896149E0,1.1288132E1,3.1713114E0,1.802502E1,3.1255043E1,4.057624E0,1.3301697E1,1.6522009E0,4.959033E0,6.869812E-1,2.6455134E-1,1.1888132E1,1.8659E0,0E0,0E0,0E0,0E0,0E0,0E0,0E0,0E0,0E0,0E0,0E0,0E0,0E0,0E0,0E0,0E0,0E0,0E0,0E0,0E0,0E0,0E0,0E0,0E0,0E0,0E0,0E0,0E0,0E0,0E0,0E0,0E0],"parents":[2147483647,0,0,1,1,2,2,3,3,4,4,5,5,6,6,7,7,8,8,9,9,10,10,11,11,12,12,13,13,14,14,15,15,16,16,17,17,18,18,19,19,20,20,21,21,22,22,23,23,24,24,25,25,26,26,27,27,28,28,29,29,30,30],"right_children":[2,4,6,8,10,12,14,16,18,20,22,24,26,28,30,32,34,36,38,40,42,44,46,48,50,52,54,56,58,60,62,-1,-1,-1,-1,-1,-1,-1,-1,-1,-1,-1,-1,-1,-1,-1,-1,-1,-1,-1,-1,-1,-1,-1,-1,-1,-1,-1,-1,-1,-1,-1,-1],"split_conditions":[3.38E2,2E-1,1.3E1,1.44238E2,3.0835E2,5E0,-2.5556E0,3.0331E2,6E-1,1.896E1,4E0,-1.8074E0,2E0,3.6115E2,3.6115E2,2.8819E2,1.0681E1,3.27E0,1.4285715E-1,1.1E1,2.5E1,4.5454547E-1,1.846E1,3.7315E2,3.5047E2,6E-1,3.5815E2,1.3609E0,-2.9441E0,8.059E1,3.9079E2,1.6704125E-2,-1.318412E-2,1.8114074E-3,-4.9072083E-2,4.3930627E-2,-5.405772E-3,4.5665614E-2,-3.072235E-3,2.6620016E-2,5.223701E-2,-6.0279947E-2,5.4264426E-2,3.393874E-3,3.1965356E-2,-7.4375607E-3,5.0234195E-2,2.2215083E-2,-3.9689254E-2,-3.1396206E-2,-5.2456494E-2,-4.596835E-2,1.4391971E-2,4.2563595E-2,-1.2139556E-2,2.0602887E-2,6.264425E-2,3.0679962E-2,1.0112191E-3,1.5270366E-2,-1.5367529E-2,-2.543368E-2,-5.6620806E-2],"split_indices":[0,12,5,58,0,24,22,0,13,66,6,22,8,0,0,0,20,65,12,25,5,13,17,0,0,13,0,23,22,16,0,0,0,0,0,0,0,0,0,0,0,0,0,0,0,0,0,0,0,0,0,0,0,0,0,0,0,0,0,0,0,0,0],"split_type":[0,0,0,0,0,0,0,0,0,0,0,0,0,0,0,0,0,0,0,0,0,0,0,0,0,0,0,0,0,0,0,0,0,0,0,0,0,0,0,0,0,0,0,0,0,0,0,0,0,0,0,0,0,0,0,0,0,0,0,0,0,0,0],"sum_hessian":[7.313E3,5.139E3,2.174E3,1.035E3,4.104E3,1.439E3,7.35E2,7.38E2,2.97E2,1.713E3,2.391E3,1.335E3,1.04E2,4.9E1,6.86E2,3.43E2,3.95E2,1.82E2,1.15E2,1.694E3,1.9E1,9.41E2,1.45E3,6.9E1,1.266E3,3E1,7.4E1,3.3E1,1.6E1,5.07E2,1.79E2,9.1E1,2.52E2,7.1E1,3.24E2,3.5E1,1.47E2,1.08E2,7E0,1.499E3,1.95E2,1.7E1,2E0,3.54E2,5.87E2,1.35E3,1E2,5.7E1,1.2E1,7.64E2,5.02E2,2.5E1,5E0,5E1,2.4E1,6E0,2.7E1,1.2E1,4E0,2.71E2,2.36E2,1.57E2,2.2E1],"tree_param":{"num_deleted":"0","num_feature":"67","num_nodes":"63","size_leaf_vector":"1"}},{"base_weights":[-1.9503613E-3,-7.6154E-2,7.3735416E-2,1.0336719E-1,-1.5289292E-1,3.537778E-2,2.1380651E-1,-1.4704176E-2,2.262761E-1,-1.845745E-1,1.9959457E-1,-1.13417525E-2,1.3358822E-1,1.6968213E-1,3.5977548E-1,5.6824334E-2,-3.347036E-1,1.6431949E-1,4.0212128E-1,-2.6208234E-1,-1.7324813E-2,6.8549536E-2,1.747975E-1,4.4482678E-1,-2.3776647E-2,1.5262967E-1,-3.3452237E-1,4.2883748E-1,1.3830455E-1,3.8897645E-1,1.3370591E-1,-1.359484E-3,2.8164912E-2,-4.2714518E-2,3.3813395E-2,1.4205161E-2,6.5895565E-2,4.1554384E-2,1.287061E-2,-3.8198393E-2,-1.7345231E-2,-1.6092412E-2,7.3555023E-3,-2.3772767E-2,2.0644529E-2,3.0660016E-2,5.474201E-2,2.709801E-2,-4.146528E-3,1.1970299E-2,3.722462E-2,1.1530711E-2,-7.9075776E-2,6.390643E-2,3.5144024E-2,-7.8577414E-2,1.4852415E-2,3.4808315E-2,4.809758E-2,-4.3842904E-3,4.498967E-2],"categories":[],"categories_nodes":[],"categories_segments":[],"categories_sizes":[],"default_left":[0,0,0,0,0,0,0,0,0,0,0,0,0,0,0,0,0,0,0,0,0,0,0,0,0,0,0,0,0,0,0,0,0,0,0,0,0,0,0,0,0,0,0,0,0,0,0,0,0,0,0,0,0,0,0,0,0,0,0,0,0],"id":10,"left_children":[1,3,5,7,9,11,13,15,17,19,21,23,25,27,29,31,33,35,37,39,41,-1,43,45,47,49,51,53,55,57,59,-1,-1,-1,-1,-1,-1,-1,-1,-1,-1,-1,-1,-1,-1,-1,-1,-1,-1,-1,-1,-1,-1,-1,-1,-1,-1,-1,-1,-1,-1],"loss_changes":[4.090811E1,5.068489E1,1.9366735E1,1.5995575E1,2.8815132E1,1.2995712E1,4.9305687E0,1.2905572E1,5.8170986E0,3.0653343E1,2.446597E0,1.0901599E1,8.189087E0,4.7952957E0,1.1296501E0,7.30237E0,6.550844E0,4.323208E0,4.6030617E-1,1.7106781E1,9.799548E0,0E0,2.7124014E0,5.5539894E-1,9.761124E0,6.304472E0,7.4793935E0,8.167496E-1,5.159649E0,4.2700195E-1,1.2547894E0,0E0,0E0,0E0,0E0,0E0,0E0,0E0,0E0,0E0,0E0,0E0,0E0,0E0,0E0,0E0,0E0,0E0,0E0,0E0,0E0,0E0,0E0,0E0,0E0,0E0,0E0,0E0,0E0,0E0,0E0],"parents":[2147483647,0,0,1,1,2,2,3,3,4,4,5,5,6,6,7,7,8,8,9,9,10,10,11,11,12,12,13,13,14,14,15,15,16,16,17,17,18,18,19,19,20,20,22,22,23,23,24,24,25,25,26,26,27,27,28,28,29,29,30,30],"right_children":[2,4,6,8,10,12,14,16,18,20,22,24,26,28,30,32,34,36,38,40,42,-1,44,46,48,50,52,54,56,58,60,-1,-1,-1,-1,-1,-1,-1,-1,-1,-1,-1,-1,-1,-1,-1,-1,-1,-1,-1,-1,-1,-1,-1,-1,-1,-1,-1,-1,-1,-1],"split_conditions":[4.0592E1,-2.1784E-1,7.5E-1,6E-1,1.367E1,7.8E1,6.4705884E-1,1.1201525E2,1.03102E0,7.5E-1,3.88E-2,2.1588E-1,4E0,1.5564E0,4E0,6.205E-1,1E1,1.68E1,2E0,3.6019E1,7.226E-1,6.8549536E-2,6.802542E1,6.6E1,1.4585E1,9.23E0,1E0,1.013E2,1.6368E0,1.9339E0,1E1,-1.359484E-3,2.8164912E-2,-4.2714518E-2,3.3813395E-2,1.4205161E-2,6.5895565E-2,4.1554384E-2,1.287061E-2,-3.8198393E-2,-1.7345231E-2,-1.6092412E-2,7.3555023E-3,-2.3772767E-2,2.0644529E-2,3.0660016E-2,5.474201E-2,2.709801E-2,-4.146528E-3,1.1970299E-2,3.722462E-2,1.1530711E-2,-7.9075776E-2,6.390643E-2,3.5144024E-2,-7.8577414E-2,1.4852415E-2,3.4808315E-2,4.809758E-2,-4.3842904E-3,4.498967E-2],"split_indices":[21,22,12,12,17,46,13,18,54,12,22,54,14,54,8,54,2,17,41,21,54,0,18,46,61,17,11,1,54,22,2,0,0,0,0,0,0,0,0,0,0,0,0,0,0,0,0,0,0,0,0,0,0,0,0,0,0,0,0,0,0],"split_type":[0,0,0,0,0,0,0,0,0,0,0,0,0,0,0,0,0,0,0,0,0,0,0,0,0,0,0,0,0,0,0,0,0,0,0,0,0,0,0,0,0,0,0,0,0,0,0,0,0,0,0,0,0,0,0,0,0,0,0,0,0],"sum_hessian":[7.282E3,3.677E3,3.605E3,1.101E3,2.576E3,2.831E3,7.74E2,5.62E2,5.39E2,2.364E3,2.12E2,1.919E3,9.12E2,5.96E2,1.78E2,4.6E2,1.02E2,4E2,1.39E2,1.615E3,7.49E2,9E0,2.03E2,5E1,1.869E3,8.77E2,3.5E1,6.3E1,5.33E2,1.57E2,2.1E1,3.51E2,1.09E2,9E1,1.2E1,3.84E2,1.6E1,1.32E2,7E0,6.85E2,9.3E2,2.9E2,4.59E2,1.4E1,1.89E2,2.3E1,2.7E1,1.05E2,1.764E3,7.64E2,1.13E2,1.8E1,1.7E1,1.5E1,4.8E1,5E0,5.28E2,1.12E2,4.5E1,1.4E1,7E0],"tree_param":{"num_deleted":"0","num_feature":"67","num_nodes":"61","size_leaf_vector":"1"}},{"base_weights":[1.2265763E-3,1.302382E-1,-1.648471E-1,-2.397703E-2,1.9111937E-1,-2.4434654E-1,1.1540659E-2,2.0549631E-1,-1.9281206E-1,2.9784983E-1,1.2065628E-1,-2.7360335E-1,1.9352713E-1,1.3262069E-1,-1.6285466E-1,2.4171337E-1,-3.099647E-1,6.314138E-2,-2.7995157E-1,2.715662E-1,5.6060386E-1,9.70614E-2,5.3912675E-1,-1.9832306E-1,-4.1201636E-1,4.0934387E-1,-9.745399E-2,2.946039E-1,-1.1155581E-2,2.7777934E-1,-2.0483318E-1,5.8655445E-3,3.6288567E-2,1.2794137E-2,-3.9273154E-2,3.4689188E-2,-2.8314053E-3,-4.3230772E-2,-7.87873E-3,5.016006E-2,2.3150383E-2,5.169816E-2,6.8810575E-2,5.2421903E-3,3.2856967E-2,4.5931097E-2,6.819107E-2,-5.058536E-3,-2.800754E-2,1.0344725E-2,-4.542329E-2,1.3761274E-3,5.9955474E-2,-4.4376493E-2,2.7844429E-3,4.5757335E-2,2.5216747E-2,3.3617802E-2,-9.315897E-3,3.439636E-2,3.1390786E-4,-2.3705704E-2,2.3558851E-2],"categories":[],"categories_nodes":[],"categories_segments":[],"categories_sizes":[],"default_left":[0,0,0,0,0,0,0,0,0,0,0,0,0,0,0,0,0,0,0,0,0,0,0,0,0,0,0,0,0,0,0,0,0,0,0,0,0,0,0,0,0,0,0,0,0,0,0,0,0,0,0,0,0,0,0,0,0,0,0,0,0,0,0],"id":11,"left_children":[1,3,5,7,9,11,13,15,17,19,21,23,25,27,29,31,33,35,37,39,41,43,45,47,49,51,53,55,57,59,61,-1,-1,-1,-1,-1,-1,-1,-1,-1,-1,-1,-1,-1,-1,-1,-1,-1,-1,-1,-1,-1,-1,-1,-1,-1,-1,-1,-1,-1,-1,-1,-1],"loss_changes":[1.5711278E2,3.8752174E1,4.495968E1,4.5330353E1,2.22174E1,2.8364792E1,2.1074041E1,9.334492E0,1.5050343E1,7.969368E0,1.7562462E1,2.1508041E1,8.768898E0,1.372071E1,7.622242E0,1.027095E1,1.2463024E0,4.4733124E0,1.5382191E1,9.7539215E0,2.338295E-1,1.744793E1,7.6945114E-1,1.6218536E1,1.5910828E1,6.011278E0,2.6158888E0,1.8003044E0,8.94635E0,6.532872E-1,5.3636885E0,0E0,0E0,0E0,0E0,0E0,0E0,0E0,0E0,0E0,0E0,0E0,0E0,0E0,0E0,0E0,0E0,0E0,0E0,0E0,0E0,0E0,0E0,0E0,0E0,0E0,0E0,0E0,0E0,0E0,0E0,0E0,0E0],"parents":[2147483647,0,0,1,1,2,2,3,3,4,4,5,5,6,6,7,7,8,8,9,9,10,10,11,11,12,12,13,13,14,14,15,15,16,16,17,17,18,18,19,19,20,20,21,21,22,22,23,23,24,24,25,25,26,26,27,27,28,28,29,29,30,30],"right_children":[2,4,6,8,10,12,14,16,18,20,22,24,26,28,30,32,34,36,38,40,42,44,46,48,50,52,54,56,58,60,62,-1,-1,-1,-1,-1,-1,-1,-1,-1,-1,-1,-1,-1,-1,-1,-1,-1,-1,-1,-1,-1,-1,-1,-1,-1,-1,-1,-1,-1,-1,-1,-1],"split_conditions":[3.28E2,4.6E1,1.3E1,-2.1784E-1,3.0331E2,5E0,3.5047E2,9.217E1,2.94199E2,1.10972E0,1.3456E0,3.43202E2,3.43202E2,7.743E1,-2.305E0,1.4585E1,2.8819E2,5.859E1,2.36186E1,2.93E2,1.2467E0,7.6E1,6.363636E-1,6.168E1,-1.8829E0,2E0,2.379E1,-6.172E-1,5.3846157E-1,4.3914914E0,7E0,5.8655445E-3,3.6288567E-2,1.2794137E-2,-3.9273154E-2,3.4689188E-2,-2.8314053E-3,-4.3230772E-2,-7.87873E-3,5.016006E-2,2.3150383E-2,5.169816E-2,6.8810575E-2,5.2421903E-3,3.2856967E-2,4.5931097E-2,6.819107E-2,-5.058536E-3,-2.800754E-2,1.0344725E-2,-4.542329E-2,1.3761274E-3,5.9955474E-2,-4.4376493E-2,2.7844429E-3,4.5757335E-2,2.5216747E-2,3.3617802E-2,-9.315897E-3,3.439636E-2,3.1390786E-4,-2.3705704E-2,2.3558851E-2],"split_indices":[0,46,5,22,0,24,0,47,0,22,22,0,0,47,22,61,0,47,61,0,23,46,38,47,22,8,47,22,13,64,24,0,0,0,0,0,0,0,0,0,0,0,0,0,0,0,0,0,0,0,0,0,0,0,0,0,0,0,0,0,0,0,0],"split_type":[0,0,0,0,0,0,0,0,0,0,0,0,0,0,0,0,0,0,0,0,0,0,0,0,0,0,0,0,0,0,0,0,0,0,0,0,0,0,0,0,0,0,0,0,0,0,0,0,0,0,0,0,0,0,0,0,0,0,0,0,0,0,0],"sum_hessian":[7.331E3,4.126E3,3.205E3,1.168E3,2.958E3,2.209E3,9.96E2,4.95E2,6.73E2,1.175E3,1.783E3,2.071E3,1.38E2,5.88E2,4.08E2,4.63E2,3.2E1,1.71E2,5.02E2,1.07E3,1.05E2,1.689E3,9.4E1,1.343E3,7.28E2,7.9E1,5.9E1,2.76E2,3.12E2,3.5E1,3.73E2,1.85E2,2.78E2,5E0,2.7E1,4.1E1,1.3E2,2.85E2,2.17E2,1.57E2,9.13E2,8.2E1,2.3E1,1.417E3,2.72E2,6.3E1,3.1E1,4.79E2,8.64E2,5.5E1,6.73E2,2.6E1,5.3E1,1.5E1,4.4E1,5.5E1,2.21E2,5.9E1,2.53E2,2.8E1,7E0,3.48E2,2.5E1],"tree_param":{"num_deleted":"0","num_feature":"67","num_nodes":"63","size_leaf_vector":"1"}},{"base_weights":[1.3887811E-3,-4.851381E-2,9.355944E-2,-2.098894E-1,-8.803276E-3,4.3692645E-1,8.248999E-2,-2.240885E-1,9.0330017E-1,8.3051525E-2,-1.09022014E-1,-1.0488232E-2,4.6689394E-1,1.9770056E-1,4.34437E-2,-1.0343688E-1,-2.811757E-1,9.574009E-2,1.5409625E-2,2.4904624E-2,2.2246213E-1,-2.9550168E-1,-6.510775E-2,3.311068E-2,-1.450286E-2,6.004832E-2,3.9625862E-1,3.2098848E-1,1.5253842E-1,1.6826786E-1,-1.7877609E-3,-5.515459E-2,-7.1059684E-3,1.5052746E-2,-2.9932348E-2,-1.0420313E-2,1.2336461E-2,1.8218266E-2,4.283017E-2,-7.0336215E-2,-2.4602791E-2,-8.046015E-3,3.7435204E-2,2.8581733E-2,4.6185378E-2,2.690113E-2,5.2547056E-2,2.6425034E-2,8.247808E-3,1.4469071E-2,4.480065E-2,-2.7158877E-2,2.606411E-3],"categories":[],"categories_nodes":[],"categories_segments":[],"categories_sizes":[],"default_left":[0,0,0,0,0,0,0,0,0,0,0,0,0,0,0,0,0,0,0,0,0,0,0,0,0,0,0,0,0,0,0,0,0,0,0,0,0,0,0,0,0,0,0,0,0,0,0,0,0,0,0,0,0],"id":12,"left_children":[1,3,5,7,9,11,13,15,17,19,21,23,25,27,29,31,33,-1,-1,35,37,39,41,-1,-1,-1,43,45,47,49,51,-1,-1,-1,-1,-1,-1,-1,-1,-1,-1,-1,-1,-1,-1,-1,-1,-1,-1,-1,-1,-1,-1],"loss_changes":[3.3641083E1,3.0405586E1,9.728426E0,1.5012928E1,3.5073082E1,1.077528E0,1.1192789E1,6.348896E0,3.3885765E-1,1.6109776E1,1.4901331E1,3.2376984E-1,4.697609E-1,3.4588451E0,1.0507467E1,4.298854E0,4.9650917E0,0E0,0E0,1.786043E1,4.7722683E0,6.82885E0,9.988344E0,0E0,0E0,0E0,2.447033E-1,1.6442127E0,3.6019096E0,3.1999216E0,1.0279349E1,0E0,0E0,0E0,0E0,0E0,0E0,0E0,0E0,0E0,0E0,0E0,0E0,0E0,0E0,0E0,0E0,0E0,0E0,0E0,0E0,0E0,0E0],"parents":[2147483647,0,0,1,1,2,2,3,3,4,4,5,5,6,6,7,7,8,8,9,9,10,10,11,11,12,12,13,13,14,14,15,15,16,16,19,19,20,20,21,21,22,22,26,26,27,27,28,28,29,29,30,30],"right_children":[2,4,6,8,10,12,14,16,18,20,22,24,26,28,30,32,34,-1,-1,36,38,40,42,-1,-1,-1,44,46,48,50,52,-1,-1,-1,-1,-1,-1,-1,-1,-1,-1,-1,-1,-1,-1,-1,-1,-1,-1,-1,-1,-1,-1],"split_conditions":[8.307943E0,1.5384616E-1,4.651E-1,1E0,5E0,1E0,3.24E0,1.4585E1,2E0,1.86784E1,5.4860544E0,8E0,9.001659E0,2E0,1.40614E1,-7.518E-1,4.936E1,9.574009E-2,1.5409625E-2,8.549E-1,2.8456023E0,1E1,3E0,3.311068E-2,-1.450286E-2,6.004832E-2,1.1E1,4.8E1,3.8638E0,2.457578E0,3E0,-5.515459E-2,-7.1059684E-3,1.5052746E-2,-2.9932348E-2,-1.0420313E-2,1.2336461E-2,1.8218266E-2,4.283017E-2,-7.0336215E-2,-2.4602791E-2,-8.046015E-3,3.7435204E-2,2.8581733E-2,4.6185378E-2,2.690113E-2,5.2547056E-2,2.6425034E-2,8.247808E-3,1.4469071E-2,4.480065E-2,-2.7158877E-2,2.606411E-3],"split_indices":[66,12,54,14,43,9,48,20,9,20,66,2,66,14,20,54,16,0,0,54,64,2,14,0,0,0,3,45,54,64,8,0,0,0,0,0,0,0,0,0,0,0,0,0,0,0,0,0,0,0,0,0,0],"split_type":[0,0,0,0,0,0,0,0,0,0,0,0,0,0,0,0,0,0,0,0,0,0,0,0,0,0,0,0,0,0,0,0,0,0,0,0,0,0,0,0,0,0,0,0,0,0,0,0,0,0,0,0,0],"sum_hessian":[7.312E3,4.744E3,2.568E3,9.36E2,3.808E3,7.9E1,2.489E3,9.25E2,1.1E1,1.987E3,1.821E3,5E0,7.4E1,6.29E2,1.86E3,2.98E2,6.27E2,1E1,1E0,1.403E3,5.84E2,3.46E2,1.475E3,1E0,4E0,2.3E1,5.1E1,1.67E2,4.62E2,4.94E2,1.366E3,1.9E1,2.79E2,2.5E1,6.02E2,6.07E2,7.96E2,4.9E2,9.4E1,3.6E1,3.1E2,1.426E3,4.9E1,2.1E1,3E1,1.35E2,3.2E1,1.77E2,2.85E2,4.57E2,3.7E1,1.27E2,1.239E3],"tree_param":{"num_deleted":"0","num_feature":"67","num_nodes":"53","size_leaf_vector":"1"}},{"base_weights":[1.9714066E-4,1.06088124E-1,-1.6925104E-1,2.2008486E-1,3.2394465E-2,-2.4213044E-1,-1.6594067E-2,6.119669E-2,2.8807554E-1,-1.2885518E-1,9.4547614E-2,-2.9286015E-1,-6.11534E-2,6.41005E-2,-1.9344336E-1,2.9150724E-1,-3.0172728E-3,4.9351782E-1,2.5827178E-1,-3.9851603E-1,2.2623225E-4,7.0541576E-2,4.6585333E-1,-3.357167E-1,7.5560464E-3,-1.7217648E-1,9.161362E-2,2.2468975E-1,-8.0186844E-2,-2.3100884E-1,1.3481571E-1,3.188994E-2,-8.465648E-2,-4.5263493E-3,3.752588E-2,3.705568E-2,5.4971267E-2,4.0173974E-2,1.977339E-2,-1.867031E-3,-5.369202E-2,1.7530072E-2,-1.6309036E-2,3.309133E-2,3.91479E-3,3.7095316E-2,5.788224E-2,-2.6048487E-2,-4.5577794E-2,-1.995302E-2,2.8102115E-2,1.4234151E-2,-2.463398E-2,2.6834566E-2,-1.7601935E-2,1.0551409E-2,2.9422883E-2,-1.556989E-2,2.5659928E-2,-1.8107764E-2,-4.341024E-2,2.0556506E-3,2.6392931E-2],"categories":[],"categories_nodes":[],"categories_segments":[],"categories_sizes":[],"default_left":[0,0,0,0,0,0,0,0,0,0,0,0,0,0,0,0,0,0,0,0,0,0,0,0,0,0,0,0,0,0,0,0,0,0,0,0,0,0,0,0,0,0,0,0,0,0,0,0,0,0,0,0,0,0,0,0,0,0,0,0,0,0,0],"id":13,"left_children":[1,3,5,7,9,11,13,15,17,19,21,23,25,27,29,31,33,35,37,39,41,43,45,47,49,51,53,55,57,59,61,-1,-1,-1,-1,-1,-1,-1,-1,-1,-1,-1,-1,-1,-1,-1,-1,-1,-1,-1,-1,-1,-1,-1,-1,-1,-1,-1,-1,-1,-1,-1,-1],"loss_changes":[1.3152245E2,3.7889046E1,3.1358902E1,1.9114326E1,2.7482958E1,1.7499275E1,1.3027348E1,7.8687096E0,7.4649963E0,2.655875E1,1.7607111E1,1.9186005E1,7.122292E0,1.4546232E1,3.55787E0,3.8861856E0,6.680951E0,8.742256E-1,9.344063E0,1.2975311E1,1.4810947E1,1.519073E1,1.0717773E0,1.1659561E1,1.0646043E1,5.7032075E0,8.419212E0,2.4303036E0,8.45775E0,2.5275555E0,4.3714702E-1,0E0,0E0,0E0,0E0,0E0,0E0,0E0,0E0,0E0,0E0,0E0,0E0,0E0,0E0,0E0,0E0,0E0,0E0,0E0,0E0,0E0,0E0,0E0,0E0,0E0,0E0,0E0,0E0,0E0,0E0,0E0,0E0],"parents":[2147483647,0,0,1,1,2,2,3,3,4,4,5,5,6,6,7,7,8,8,9,9,10,10,11,11,12,12,13,13,14,14,15,15,16,16,17,17,18,18,19,19,20,20,21,21,22,22,23,23,24,24,25,25,26,26,27,27,28,28,29,29,30,30],"right_children":[2,4,6,8,10,12,14,16,18,20,22,24,26,28,30,32,34,36,38,40,42,44,46,48,50,52,54,56,58,60,62,-1,-1,-1,-1,-1,-1,-1,-1,-1,-1,-1,-1,-1,-1,-1,-1,-1,-1,-1,-1,-1,-1,-1,-1,-1,-1,-1,-1,-1,-1,-1,-1],"split_conditions":[3.325E2,3.0331E2,1.3E1,6E-1,3.6019E1,8.181818E-1,3.532E2,5E0,2.93E2,1.4285715E-1,1.3456E0,1.907E1,6E0,4.458227E0,8.666667E-1,3.0437584E0,3E0,3.2311E1,2.60317E1,3.221E-1,3.6324322E0,-2.113E-1,5.217391E-1,3.43202E2,2.6500692E0,3E0,3.531E2,3.8E1,2.2E1,3.8039E2,7E-1,3.188994E-2,-8.465648E-2,-4.5263493E-3,3.752588E-2,3.705568E-2,5.4971267E-2,4.0173974E-2,1.977339E-2,-1.867031E-3,-5.369202E-2,1.7530072E-2,-1.6309036E-2,3.309133E-2,3.91479E-3,3.7095316E-2,5.788224E-2,-2.6048487E-2,-4.5577794E-2,-1.995302E-2,2.8102115E-2,1.4234151E-2,-2.463398E-2,2.6834566E-2,-1.7601935E-2,1.0551409E-2,2.9422883E-2,-1.556989E-2,2.5659928E-2,-1.8107764E-2,-4.341024E-2,2.0556506E-3,2.6392931E-2],"split_indices":[0,0,5,12,21,12,0,2,0,37,22,48,2,63,12,64,7,21,20,23,63,22,13,0,64,2,0,45,5,0,13,0,0,0,0,0,0,0,0,0,0,0,0,0,0,0,0,0,0,0,0,0,0,0,0,0,0,0,0,0,0,0,0],"split_type":[0,0,0,0,0,0,0,0,0,0,0,0,0,0,0,0,0,0,0,0,0,0,0,0,0,0,0,0,0,0,0,0,0,0,0,0,0,0,0,0,0,0,0,0,0,0,0,0,0,0,0,0,0,0,0,0,0,0,0,0,0,0,0],"sum_hessian":[7.328E3,4.51E3,2.818E3,1.77E3,2.74E3,1.907E3,9.11E2,5.31E2,1.239E3,7.62E2,1.978E3,1.489E3,4.18E2,6.26E2,2.85E2,1.15E2,4.16E2,1.55E2,1.084E3,2.46E2,5.16E2,1.859E3,1.19E2,1.303E3,1.86E2,2.42E2,1.76E2,2.96E2,3.3E2,2.56E2,2.9E1,1.13E2,2E0,3.75E2,4.1E1,5.1E1,1.04E2,3.2E2,7.64E2,6.6E1,1.8E2,2.49E2,2.67E2,1.99E2,1.66E3,6.7E1,5.2E1,8.03E2,5E2,1.06E2,8E1,4.6E1,1.96E2,1.06E2,7E1,1.1E2,1.86E2,2.7E2,6E1,2.07E2,4.9E1,1.6E1,1.3E1],"tree_param":{"num_deleted":"0","num_feature":"67","num_nodes":"63","size_leaf_vector":"1"}},{"base_weights":[2.3892576E-4,-5.6407705E-2,6.327236E-2,8.21871E-2,-1.11684114E-1,2.550526E-1,4.9723726E-2,4.8468458E-3,1.6628174E-1,-1.3415352E-1,2.0447996E-1,1.6172412E-1,4.470913E-1,4.0912855E-2,3.3406568E-1,8.424454E-2,-3.020192E-1,1.1037752E-1,3.52487E-1,-2.7041396E-1,-7.319405E-2,1.8079793E-1,7.740854E-2,-1.9712166E-1,2.3224925E-1,5.2958524E-1,2.838765E-1,1.7110877E-2,1.5607902E-1,5.0215203E-2,2.5857913E-1,-2.9656796E-2,1.5998602E-2,-3.5390045E-2,-1.0482783E-2,8.56024E-3,2.8115327E-2,3.1570602E-2,6.337669E-2,-2.7846603E-2,6.746485E-2,-1.187994E-2,6.90698E-3,1.9939618E-2,-3.8248442E-2,1.4310512E-2,-4.5616165E-2,3.5761528E-2,1.6835166E-2,5.660506E-2,2.3513801E-2,4.883146E-2,1.8790744E-2,-1.2381235E-2,3.786573E-3,8.003067E-3,3.0521264E-2,2.0514077E-2,3.634183E-2],"categories":[],"categories_nodes":[],"categories_segments":[],"categories_sizes":[],"default_left":[0,0,0,0,0,0,0,0,0,0,0,0,0,0,0,0,0,0,0,0,0,0,0,0,0,0,0,0,0,0,0,0,0,0,0,0,0,0,0,0,0,0,0,0,0,0,0,0,0,0,0,0,0,0,0,0,0,0,0],"id":14,"left_children":[1,3,5,7,9,11,13,15,17,19,21,23,25,27,29,31,33,35,37,39,41,43,-1,45,47,49,51,53,55,-1,57,-1,-1,-1,-1,-1,-1,-1,-1,-1,-1,-1,-1,-1,-1,-1,-1,-1,-1,-1,-1,-1,-1,-1,-1,-1,-1,-1,-1],"loss_changes":[2.6094172E1,2.949646E1,8.975043E0,7.1404777E0,1.9577682E1,4.0140676E0,8.083464E0,1.3986277E1,5.436575E0,2.1327564E1,2.328609E0,3.9684658E0,8.46015E-1,8.5936775E0,1.100915E0,1.3199992E1,1.170104E0,1.6937141E0,1.0517511E0,6.229969E0,1.1537366E1,1.9305282E0,0E0,2.35672E0,9.8117113E-1,3.8228226E-1,4.379747E-1,7.609274E0,6.0658884E0,0E0,3.1201553E-1,0E0,0E0,0E0,0E0,0E0,0E0,0E0,0E0,0E0,0E0,0E0,0E0,0E0,0E0,0E0,0E0,0E0,0E0,0E0,0E0,0E0,0E0,0E0,0E0,0E0,0E0,0E0,0E0],"parents":[2147483647,0,0,1,1,2,2,3,3,4,4,5,5,6,6,7,7,8,8,9,9,10,10,11,11,12,12,13,13,14,14,15,15,16,16,17,17,18,18,19,19,20,20,21,21,23,23,24,24,25,25,26,26,27,27,28,28,30,30],"right_children":[2,4,6,8,10,12,14,16,18,20,22,24,26,28,30,32,34,36,38,40,42,44,-1,46,48,50,52,54,56,-1,58,-1,-1,-1,-1,-1,-1,-1,-1,-1,-1,-1,-1,-1,-1,-1,-1,-1,-1,-1,-1,-1,-1,-1,-1,-1,-1,-1,-1],"split_conditions":[7.7338367E0,-2.1784E-1,-4.636E-1,5.714286E-1,3E0,4E0,1E0,3E0,5.96E0,5.82987E0,2.1E1,1.2E1,1.4E1,1.23719E0,7E0,-3.151E-1,1E0,2.16245E1,9.23E0,3.58878E1,1.06368E0,2E0,7.740854E-2,1.5564E0,1.73E0,2.0113863E2,5.714286E-1,3E0,2.1577957E0,5.0215203E-2,4.784935E0,-2.9656796E-2,1.5998602E-2,-3.5390045E-2,-1.0482783E-2,8.56024E-3,2.8115327E-2,3.1570602E-2,6.337669E-2,-2.7846603E-2,6.746485E-2,-1.187994E-2,6.90698E-3,1.9939618E-2,-3.8248442E-2,1.4310512E-2,-4.5616165E-2,3.5761528E-2,1.6835166E-2,5.660506E-2,2.3513801E-2,4.883146E-2,1.8790744E-2,-1.2381235E-2,3.786573E-3,8.003067E-3,3.0521264E-2,2.0514077E-2,3.634183E-2],"split_indices":[66,22,22,37,14,43,49,6,66,66,4,3,5,22,15,23,14,20,17,20,22,9,0,23,65,19,37,6,64,0,65,0,0,0,0,0,0,0,0,0,0,0,0,0,0,0,0,0,0,0,0,0,0,0,0,0,0,0,0],"split_type":[0,0,0,0,0,0,0,0,0,0,0,0,0,0,0,0,0,0,0,0,0,0,0,0,0,0,0,0,0,0,0,0,0,0,0,0,0,0,0,0,0,0,0,0,0,0,0,0,0,0,0,0,0,0,0,0,0,0,0],"sum_hessian":[7.306E3,3.848E3,3.458E3,1.097E3,2.751E3,2.27E2,3.231E3,5.72E2,5.25E2,2.569E3,1.82E2,1.54E2,7.3E1,3.135E3,9.6E1,4.55E2,1.17E2,4.05E2,1.2E2,7.93E2,1.776E3,1.76E2,6E0,2.5E1,1.29E2,4.7E1,2.6E1,2.599E3,5.36E2,2.8E1,6.8E1,7.5E1,3.8E2,9.2E1,2.5E1,3.55E2,5E1,1.08E2,1.2E1,7.87E2,6E0,1.345E3,4.31E2,1.71E2,5E0,1.1E1,1.4E1,4.2E1,8.7E1,4.1E1,6E0,7E0,1.9E1,3.33E2,2.266E3,3.56E2,1.8E2,4.7E1,2.1E1],"tree_param":{"num_deleted":"0","num_feature":"67","num_nodes":"59","size_leaf_vector":"1"}},{"base_weights":[-2.8354765E-3,1.351263E-1,-1.23458035E-1,1.8784123E-2,1.8178986E-1,-2.009893E-1,-1.5715685E-2,2.0322393E-1,-1.11422576E-1,3.5245013E-1,1.4705943E-1,-2.1765801E-1,3.8322446E-1,6.4727455E-2,-1.9596034E-1,2.4365838E-1,-2.1575117E-1,-1.4675495E-1,4.6904942E-1,4.471367E-1,2.8981164E-1,1.1767164E-1,3.2949495E-1,-1.4633717E-1,-3.196198E-1,8.227264E-2,2.4086212E-1,2.0272212E-1,-3.209165E-2,-1.0158381E-1,-3.3446774E-1,3.713916E-2,1.0372376E-2,7.4563385E-3,-3.8308393E-2,1.8275471E-2,-2.2131E-2,3.2931883E-3,5.457514E-2,3.264404E-2,5.0172176E-2,1.9751823E-2,3.6882307E-2,7.5175962E-3,2.8173005E-2,2.7674476E-2,5.0965697E-2,-3.2739688E-3,-2.1713417E-2,2.7010102E-2,-3.415959E-2,4.6002474E-2,-9.992489E-3,8.236601E-3,3.1864937E-2,-7.975808E-3,4.1453775E-2,-3.0655514E-3,-3.257643E-2,-4.079339E-2,-7.4856416E-3],"categories":[],"categories_nodes":[],"categories_segments":[],"categories_sizes":[],"default_left":[0,0,0,0,0,0,0,0,0,0,0,0,0,0,0,0,0,0,0,0,0,0,0,0,0,0,0,0,0,0,0,0,0,0,0,0,0,0,0,0,0,0,0,0,0,0,0,0,0,0,0,0,0,0,0,0,0,0,0,0,0],"id":15,"left_children":[1,3,5,7,9,11,13,15,17,19,21,23,25,27,29,31,33,35,37,39,41,43,45,47,49,-1,51,53,55,57,59,-1,-1,-1,-1,-1,-1,-1,-1,-1,-1,-1,-1,-1,-1,-1,-1,-1,-1,-1,-1,-1,-1,-1,-1,-1,-1,-1,-1,-1,-1],"loss_changes":[1.2111544E2,1.8427841E1,3.2433094E1,2.3389528E1,1.4309547E1,2.2072021E1,2.3588783E1,6.8798065E0,1.1779735E1,2.2961998E0,1.07644005E1,1.5922531E1,3.7436523E0,1.503709E1,6.5280933E0,6.539219E0,1.7774128E0,1.3281845E1,1.0859132E0,8.9691925E-1,1.7429161E0,1.2088791E1,2.510456E0,1.0399704E1,1.17949295E1,0E0,3.7056682E0,6.4477367E0,1.4126533E1,4.760235E0,3.8412094E0,0E0,0E0,0E0,0E0,0E0,0E0,0E0,0E0,0E0,0E0,0E0,0E0,0E0,0E0,0E0,0E0,0E0,0E0,0E0,0E0,0E0,0E0,0E0,0E0,0E0,0E0,0E0,0E0,0E0,0E0],"parents":[2147483647,0,0,1,1,2,2,3,3,4,4,5,5,6,6,7,7,8,8,9,9,10,10,11,11,12,12,13,13,14,14,15,15,16,16,17,17,18,18,19,19,20,20,21,21,22,22,23,23,24,24,26,26,27,27,28,28,29,29,30,30],"right_children":[2,4,6,8,10,12,14,16,18,20,22,24,26,28,30,32,34,36,38,40,42,44,46,48,50,-1,52,54,56,58,60,-1,-1,-1,-1,-1,-1,-1,-1,-1,-1,-1,-1,-1,-1,-1,-1,-1,-1,-1,-1,-1,-1,-1,-1,-1,-1,-1,-1,-1,-1],"split_conditions":[3.1845E2,5.82987E0,8.446618E0,-2.1784E-1,2.94199E2,7E0,3.5047E2,7.013E1,3E0,2.93E2,1.10972E0,3.4211E2,8.43E0,4.458227E0,5E0,3.0815E2,2.9815E2,2.8819E2,1E0,4.534785E0,1.3609E0,2.20132E0,1.44962E2,6.168E1,4.5017E1,8.227264E-2,3.43202E2,4.87E0,2.764E1,3.7315E2,1.367E1,3.713916E-2,1.0372376E-2,7.4563385E-3,-3.8308393E-2,1.8275471E-2,-2.2131E-2,3.2931883E-3,5.457514E-2,3.264404E-2,5.0172176E-2,1.9751823E-2,3.6882307E-2,7.5175962E-3,2.8173005E-2,2.7674476E-2,5.0965697E-2,-3.2739688E-3,-2.1713417E-2,2.7010102E-2,-3.415959E-2,4.6002474E-2,-9.992489E-3,8.236601E-3,3.1864937E-2,-7.975808E-3,4.1453775E-2,-3.0655514E-3,-3.257643E-2,-4.079339E-2,-7.4856416E-3],"split_indices":[0,66,66,22,0,24,0,16,14,0,22,0,65,63,6,0,0,0,9,63,23,23,57,16,57,0,0,65,48,0,48,0,0,0,0,0,0,0,0,0,0,0,0,0,0,0,0,0,0,0,0,0,0,0,0,0,0,0,0,0,0],"split_type":[0,0,0,0,0,0,0,0,0,0,0,0,0,0,0,0,0,0,0,0,0,0,0,0,0,0,0,0,0,0,0,0,0,0,0,0,0,0,0,0,0,0,0,0,0,0,0,0,0,0,0,0,0,0,0,0,0,0,0,0,0],"sum_hessian":[7.276E3,3.394E3,3.882E3,9.72E2,2.422E3,2.257E3,1.625E3,4.02E2,5.7E2,4.08E2,2.014E3,2.195E3,6.2E1,1.124E3,5.01E2,3.67E2,3.5E1,5.38E2,3.2E1,1.6E2,2.48E2,1.736E3,2.78E2,1.293E3,9.02E2,1.4E1,4.8E1,4.63E2,6.61E2,2.99E2,2.02E2,1.91E2,1.76E2,1.3E1,2.2E1,9.9E1,4.39E2,5E0,2.7E1,5.2E1,1.08E2,1.16E2,1.32E2,1.38E3,3.56E2,2.17E2,6.1E1,4.97E2,7.96E2,3.2E1,8.7E2,2.9E1,1.9E1,2.28E2,2.35E2,5.98E2,6.3E1,2.28E2,7.1E1,1.57E2,4.5E1],"tree_param":{"num_deleted":"0","num_feature":"67","num_nodes":"61","size_leaf_vector":"1"}},{"base_weights":[-2.0115918E-3,-1.1291733E-1,2.0946175E-2,-1.6238728E-1,2.5870726E-1,3.258736E-3,2.5594667E-1,-1.8771304E-1,2.3164053E-1,-7.936674E-2,3.497388E-1,7.085008E-2,-3.9072536E-2,1.37747E-1,3.4587467E-1,-5.930279E-2,-2.4711877E-1,1.5332115E-1,3.8487014E-1,-1.752643E-1,1.4913431E-1,2.7930206E-1,5.0476956E-1,8.655861E-2,-3.794275E-1,-1.9660765E-1,3.2539605E-4,-3.758674E-1,2.0267478E-1,1.8652396E-1,3.7049627E-1,-1.3863094E-2,2.5297493E-2,-2.8758112E-2,2.6928915E-3,4.84436E-3,3.6683854E-2,5.571679E-2,3.2834064E-2,2.3392234E-3,-4.35857E-2,2.3658052E-2,5.1406743E-3,4.2575922E-2,2.185051E-2,7.48896E-2,3.914605E-2,3.8914066E-3,1.8097535E-2,5.0868142E-2,-6.581156E-2,-2.2243798E-2,1.8768404E-2,8.324004E-3,-3.5068828E-3,-1.3910641E-2,-5.784586E-2,-2.1805061E-2,2.6939316E-2,-1.0430132E-2,2.8002027E-2,2.7636284E-2,4.2807017E-2],"categories":[],"categories_nodes":[],"categories_segments":[],"categories_sizes":[],"default_left":[0,0,0,0,0,0,0,0,0,0,0,0,0,0,0,0,0,0,0,0,0,0,0,0,0,0,0,0,0,0,0,0,0,0,0,0,0,0,0,0,0,0,0,0,0,0,0,0,0,0,0,0,0,0,0,0,0,0,0,0,0,0,0],"id":16,"left_children":[1,3,5,7,9,11,13,15,17,19,21,23,25,27,29,31,33,35,37,39,41,43,45,47,49,51,53,55,57,59,61,-1,-1,-1,-1,-1,-1,-1,-1,-1,-1,-1,-1,-1,-1,-1,-1,-1,-1,-1,-1,-1,-1,-1,-1,-1,-1,-1,-1,-1,-1,-1,-1],"loss_changes":[1.852814E1,2.2985558E1,2.5059048E1,1.1040398E1,4.5517416E0,1.6048534E1,4.4379864E0,7.8882713E0,7.4504805E-1,7.27344E-1,1.125721E0,1.5310952E1,2.1406483E1,6.212181E0,8.6860466E-1,8.185194E0,7.8584785E0,1.0123154E0,3.1337023E-2,1.2008698E0,7.329722E-2,6.371088E-1,6.749983E-1,9.385707E0,1.8402664E1,6.8909473E0,8.10269E0,9.2681265E-1,4.6622396E0,9.537034E-1,9.9814034E-1,0E0,0E0,0E0,0E0,0E0,0E0,0E0,0E0,0E0,0E0,0E0,0E0,0E0,0E0,0E0,0E0,0E0,0E0,0E0,0E0,0E0,0E0,0E0,0E0,0E0,0E0,0E0,0E0,0E0,0E0,0E0,0E0],"parents":[2147483647,0,0,1,1,2,2,3,3,4,4,5,5,6,6,7,7,8,8,9,9,10,10,11,11,12,12,13,13,14,14,15,15,16,16,17,17,18,18,19,19,20,20,21,21,22,22,23,23,24,24,25,25,26,26,27,27,28,28,29,29,30,30],"right_children":[2,4,6,8,10,12,14,16,18,20,22,24,26,28,30,32,34,36,38,40,42,44,46,48,50,52,54,56,58,60,62,-1,-1,-1,-1,-1,-1,-1,-1,-1,-1,-1,-1,-1,-1,-1,-1,-1,-1,-1,-1,-1,-1,-1,-1,-1,-1,-1,-1,-1,-1,-1,-1],"split_conditions":[1.5384616E-1,1E0,1.907E1,1.1E1,3.73E1,4.458227E0,6.1538464E-1,1.4585E1,1.7E1,1.5E1,2.4438E1,1E0,8.935E-1,2.7272728E-1,-1.9149E0,4.0592E1,3E0,6.531E1,2.1E1,6.363636E-1,1.013E2,2.8320858E0,1.1E1,3E0,2.1256216E0,2.809251E2,3.24E0,-1.712E-1,2.0678225E0,4.6153846E-1,-7.518E-1,-1.3863094E-2,2.5297493E-2,-2.8758112E-2,2.6928915E-3,4.84436E-3,3.6683854E-2,5.571679E-2,3.2834064E-2,2.3392234E-3,-4.35857E-2,2.3658052E-2,5.1406743E-3,4.2575922E-2,2.185051E-2,7.48896E-2,3.914605E-2,3.8914066E-3,1.8097535E-2,5.0868142E-2,-6.581156E-2,-2.2243798E-2,1.8768404E-2,8.324004E-3,-3.5068828E-3,-1.3910641E-2,-5.784586E-2,-2.1805061E-2,2.6939316E-2,-1.0430132E-2,2.8002027E-2,2.7636284E-2,4.2807017E-2],"split_indices":[12,33,48,25,16,63,38,20,3,3,20,42,23,12,53,21,7,16,3,38,1,64,3,8,64,18,48,23,64,12,23,0,0,0,0,0,0,0,0,0,0,0,0,0,0,0,0,0,0,0,0,0,0,0,0,0,0,0,0,0,0,0,0],"split_type":[0,0,0,0,0,0,0,0,0,0,0,0,0,0,0,0,0,0,0,0,0,0,0,0,0,0,0,0,0,0,0,0,0,0,0,0,0,0,0,0,0,0,0,0,0,0,0,0,0,0,0,0,0,0,0,0,0,0,0,0,0,0,0],"sum_hessian":[7.275E3,1.247E3,6.028E3,1.101E3,1.46E2,5.607E3,4.21E2,1.035E3,6.6E1,3.1E1,1.15E2,2.159E3,3.448E3,1.83E2,2.38E2,3.28E2,7.07E2,4.5E1,2.1E1,2.2E1,9E0,8.1E1,3.4E1,2.087E3,7.2E1,6.89E2,2.759E3,2E1,1.63E2,3.3E1,2.05E2,2.62E2,6.6E1,6.16E2,9.1E1,3.1E1,1.4E1,3E0,1.8E1,1.3E1,9E0,4E0,5E0,2.2E1,5.9E1,9E0,2.5E1,1.388E3,6.99E2,1.7E1,5.5E1,6.46E2,4.3E1,8.25E2,1.934E3,1E1,1E1,2.2E1,1.41E2,8E0,2.5E1,8E1,1.25E2],"tree_param":{"num_deleted":"0","num_feature":"67","num_nodes":"63","size_leaf_vector":"1"}},{"base_weights":[1.0853093E-3,1.481628E-1,-9.7212955E-2,2.9903876E-2,1.7833617E-1,-4.4354025E-2,-2.2740152E-1,1.8353066E-1,-8.0104664E-2,1.584012E-1,3.9959922E-1,-1.3444327E-1,6.161989E-2,8.933722E-2,-2.6070395E-1,2.778383E-1,4.729767E-3,3.5111677E-2,-2.110871E-1,2.679231E-1,1.04065016E-1,3.0727345E-1,5.029956E-1,-1.5221015E-1,3.574784E-1,2.0791395E-1,-5.630869E-3,1.7534293E-1,-2.4793842E-1,-2.844139E-1,1.5766016E-1,1.0843305E-2,4.3586906E-2,-5.0827593E-2,1.5554423E-2,-8.476229E-3,1.4361853E-2,-1.7513348E-2,-8.068342E-2,3.6767237E-2,2.1177346E-2,8.475647E-3,5.769899E-2,4.700206E-2,1.8009191E-2,5.4985076E-2,4.3185186E-2,2.4024916E-3,-2.0953845E-2,4.6666067E-2,1.7881017E-2,1.5427341E-2,3.391781E-2,-1.1155659E-2,1.4619246E-2,2.7047643E-2,-8.8890095E-4,-5.6644864E-2,-1.1754316E-2,-3.2280266E-2,-1.068345E-2,9.325854E-3,7.431989E-2],"categories":[],"categories_nodes":[],"categories_segments":[],"categories_sizes":[],"default_left":[0,0,0,0,0,0,0,0,0,0,0,0,0,0,0,0,0,0,0,0,0,0,0,0,0,0,0,0,0,0,0,0,0,0,0,0,0,0,0,0,0,0,0,0,0,0,0,0,0,0,0,0,0,0,0,0,0,0,0,0,0,0,0],"id":17,"left_children":[1,3,5,7,9,11,13,15,17,19,21,23,25,27,29,31,33,35,37,39,41,43,45,47,49,51,53,55,57,59,61,-1,-1,-1,-1,-1,-1,-1,-1,-1,-1,-1,-1,-1,-1,-1,-1,-1,-1,-1,-1,-1,-1,-1,-1,-1,-1,-1,-1,-1,-1,-1,-1],"loss_changes":[1.05597244E2,1.0435425E1,3.011768E1,1.00872555E1,1.0218445E1,2.974753E1,1.3356186E1,4.1973963E0,5.2591896E0,1.270726E1,1.6783047E0,1.4772425E1,1.4089741E1,3.5533977E0,1.1392616E1,4.316449E0,6.8101344E0,2.4315026E0,3.3500366E0,3.8931656E0,1.3027389E1,2.0679903E0,5.9221268E-2,1.6432926E1,1.0674925E0,3.1232014E0,1.5808827E1,1.7024872E0,9.7172344E-1,7.3483887E0,2.2686882E0,0E0,0E0,0E0,0E0,0E0,0E0,0E0,0E0,0E0,0E0,0E0,0E0,0E0,0E0,0E0,0E0,0E0,0E0,0E0,0E0,0E0,0E0,0E0,0E0,0E0,0E0,0E0,0E0,0E0,0E0,0E0,0E0],"parents":[2147483647,0,0,1,1,2,2,3,3,4,4,5,5,6,6,7,7,8,8,9,9,10,10,11,11,12,12,13,13,14,14,15,15,16,16,17,17,18,18,19,19,20,20,21,21,22,22,23,23,24,24,25,25,26,26,27,27,28,28,29,29,30,30],"right_children":[2,4,6,8,10,12,14,16,18,20,22,24,26,28,30,32,34,36,38,40,42,44,46,48,50,52,54,56,58,60,62,-1,-1,-1,-1,-1,-1,-1,-1,-1,-1,-1,-1,-1,-1,-1,-1,-1,-1,-1,-1,-1,-1,-1,-1,-1,-1,-1,-1,-1,-1,-1,-1],"split_conditions":[3.138E2,2.8607817E0,3.479E2,3.88E-2,1.2E1,6.363636E-1,-1.2804E0,1E0,3.0088E2,7.137E1,3.3961E0,2E0,6.036E1,3.7297E2,7E0,2E0,1.967E1,1.2610258E2,1.5E1,3.03E2,1.967E1,3.0088E2,3.1274E2,-2.1784E-1,3.3565E2,1.3456E0,2.3233073E0,-2.5556E0,1E1,1.5917E0,2E0,1.0843305E-2,4.3586906E-2,-5.0827593E-2,1.5554423E-2,-8.476229E-3,1.4361853E-2,-1.7513348E-2,-8.068342E-2,3.6767237E-2,2.1177346E-2,8.475647E-3,5.769899E-2,4.700206E-2,1.8009191E-2,5.4985076E-2,4.3185186E-2,2.4024916E-3,-2.0953845E-2,4.6666067E-2,1.7881017E-2,1.5427341E-2,3.391781E-2,-1.1155659E-2,1.4619246E-2,2.7047643E-2,-8.8890095E-4,-5.6644864E-2,-1.1754316E-2,-3.2280266E-2,-1.068345E-2,9.325854E-3,7.431989E-2],"split_indices":[0,63,0,53,25,38,53,42,0,47,23,34,47,0,24,43,17,19,5,0,17,0,0,53,0,53,64,53,5,53,9,0,0,0,0,0,0,0,0,0,0,0,0,0,0,0,0,0,0,0,0,0,0,0,0,0,0,0,0,0,0,0,0],"split_type":[0,0,0,0,0,0,0,0,0,0,0,0,0,0,0,0,0,0,0,0,0,0,0,0,0,0,0,0,0,0,0,0,0,0,0,0,0,0,0,0,0,0,0,0,0,0,0,0,0,0,0,0,0,0,0,0,0,0,0,0,0,0,0],"sum_hessian":[7.302E3,2.925E3,4.377E3,5.95E2,2.33E3,3.114E3,1.263E3,2.48E2,3.47E2,2.139E3,1.91E2,1.683E3,1.431E3,1.2E2,1.143E3,1.62E2,8.6E1,1.85E2,1.62E2,7.08E2,1.431E3,1.03E2,8.8E1,1.625E3,5.8E1,4.5E2,9.81E2,9.6E1,2.4E1,1.082E3,6.1E1,7.9E1,8.3E1,1.9E1,6.7E1,8.8E1,9.7E1,1.54E2,8E0,2.53E2,4.55E2,1.376E3,5.5E1,4.4E1,5.9E1,4.9E1,3.9E1,3.99E2,1.226E3,3.5E1,2.3E1,3.21E2,1.29E2,5.78E2,4.03E2,6.3E1,3.3E1,6E0,1.8E1,8.89E2,1.93E2,5.6E1,5E0],"tree_param":{"num_deleted":"0","num_feature":"67","num_nodes":"63","size_leaf_vector":"1"}},{"base_weights":[1.5272659E-3,8.6593896E-2,-1.342904E-1,2.0605887E-1,3.9924208E-2,-1.5010305E-1,2.5678405E-1,8.1233904E-2,2.7001664E-1,-2.9037375E-2,1.21646754E-1,-2.184896E-1,-6.0997814E-2,3.960324E-1,9.955407E-2,-9.440678E-3,1.7280002E-1,4.142263E-1,2.3658532E-1,-2.0703518E-1,1.9540202E-2,8.061986E-2,3.0237997E-1,-4.272069E-2,-2.505748E-1,1.9474678E-1,-9.989934E-2,2.538026E-1,6.014342E-2,3.91786E-2,6.713229E-2,-3.9903824E-3,3.757466E-2,4.6591606E-2,1.261701E-2,4.1994166E-2,-1.7238538E-3,2.0737272E-2,4.2135555E-2,1.3345974E-2,-2.5593434E-2,-1.139591E-3,3.3348396E-2,1.0271645E-3,1.839677E-2,-2.8002052E-2,3.1646363E-2,-2.0133836E-2,7.979011E-3,-3.0169815E-2,-1.3923797E-2,3.1802945E-2,5.736113E-3,-2.558735E-3,-2.23686E-2,5.5078227E-2,1.994682E-2,9.761143E-3,-3.253628E-2],"categories":[],"categories_nodes":[],"categories_segments":[],"categories_sizes":[],"default_left":[0,0,0,0,0,0,0,0,0,0,0,0,0,0,0,0,0,0,0,0,0,0,0,0,0,0,0,0,0,0,0,0,0,0,0,0,0,0,0,0,0,0,0,0,0,0,0,0,0,0,0,0,0,0,0,0,0,0,0],"id":18,"left_children":[1,3,5,7,9,11,13,15,17,19,21,23,25,27,29,31,33,35,37,39,41,43,45,47,49,51,53,55,-1,57,-1,-1,-1,-1,-1,-1,-1,-1,-1,-1,-1,-1,-1,-1,-1,-1,-1,-1,-1,-1,-1,-1,-1,-1,-1,-1,-1,-1,-1],"loss_changes":[8.4629845E1,2.5103352E1,1.7483383E1,1.0077225E1,1.8263254E1,1.6512512E1,2.368915E0,3.5718005E0,3.932457E0,1.5204947E1,1.0971954E1,8.640411E0,1.1749153E1,1.5417814E0,1.8033012E0,2.561275E0,2.8661623E0,3.9192963E-1,3.5884018E0,6.3111744E0,1.342606E1,8.7952175E0,2.3360538E0,4.64097E0,7.3404007E0,2.6239715E0,9.413881E0,4.7104025E-1,0E0,1.0755169E0,0E0,0E0,0E0,0E0,0E0,0E0,0E0,0E0,0E0,0E0,0E0,0E0,0E0,0E0,0E0,0E0,0E0,0E0,0E0,0E0,0E0,0E0,0E0,0E0,0E0,0E0,0E0,0E0,0E0],"parents":[2147483647,0,0,1,1,2,2,3,3,4,4,5,5,6,6,7,7,8,8,9,9,10,10,11,11,12,12,13,13,14,14,15,15,16,16,17,17,18,18,19,19,20,20,21,21,22,22,23,23,24,24,25,25,26,26,27,27,29,29],"right_children":[2,4,6,8,10,12,14,16,18,20,22,24,26,28,30,32,34,36,38,40,42,44,46,48,50,52,54,56,-1,58,-1,-1,-1,-1,-1,-1,-1,-1,-1,-1,-1,-1,-1,-1,-1,-1,-1,-1,-1,-1,-1,-1,-1,-1,-1,-1,-1,-1,-1],"split_conditions":[3.325E2,3.0088E2,7E0,6.666667E-1,4.0592E1,1.5617468E2,3.48196E2,9E0,2.93E2,1.5384616E-1,7.5E-1,-8.537E-1,-4.636E-1,3E0,2E0,1E0,6.1988365E1,8E0,1.1E1,1E0,3E0,2.20132E0,3E0,2.7272728E-1,7.5E-1,3.531E2,3.53E2,1E1,6.014342E-2,3.6629E2,6.713229E-2,-3.9903824E-3,3.757466E-2,4.6591606E-2,1.261701E-2,4.1994166E-2,-1.7238538E-3,2.0737272E-2,4.2135555E-2,1.3345974E-2,-2.5593434E-2,-1.139591E-3,3.3348396E-2,1.0271645E-3,1.839677E-2,-2.8002052E-2,3.1646363E-2,-2.0133836E-2,7.979011E-3,-3.0169815E-2,-1.3923797E-2,3.1802945E-2,5.736113E-3,-2.558735E-3,-2.23686E-2,5.5078227E-2,1.994682E-2,9.761143E-3,-3.253628E-2],"split_indices":[0,0,24,12,21,19,0,5,0,12,12,22,22,8,9,26,18,15,25,24,24,54,2,12,12,0,0,2,0,0,0,0,0,0,0,0,0,0,0,0,0,0,0,0,0,0,0,0,0,0,0,0,0,0,0,0,0,0,0],"split_type":[0,0,0,0,0,0,0,0,0,0,0,0,0,0,0,0,0,0,0,0,0,0,0,0,0,0,0,0,0,0,0,0,0,0,0,0,0,0,0,0,0,0,0,0,0,0,0,0,0,0,0,0,0,0,0,0,0,0,0],"sum_hessian":[7.323E3,4.503E3,2.82E3,1.264E3,3.239E3,2.711E3,1.09E2,4.29E2,8.35E2,1.757E3,1.482E3,1.533E3,1.178E3,5.7E1,5.2E1,2.16E2,2.13E2,1.55E2,6.8E2,3.76E2,1.381E3,1.209E3,2.73E2,2.37E2,1.296E3,1.55E2,1.023E3,3.5E1,2.2E1,4.8E1,4E0,2.01E2,1.5E1,2.8E1,1.85E2,1.53E2,2E0,5.89E2,9.1E1,4.7E1,3.29E2,1.258E3,1.23E2,7.2E2,4.89E2,6E0,2.67E2,1.03E2,1.34E2,8.87E2,4.09E2,8.1E1,7.4E1,6.4E2,3.83E2,4E0,3.1E1,4.2E1,6E0],"tree_param":{"num_deleted":"0","num_feature":"67","num_nodes":"59","size_leaf_vector":"1"}},{"base_weights":[1.1908405E-3,-4.160703E-2,4.477127E-2,6.534434E-2,-8.733813E-2,1.816343E-2,1.1930454E-1,1.128772E-2,2.013997E-1,-1.1152424E-1,1.7720993E-1,1.01469174E-1,-1.7084168E-2,-1.5655231E-1,1.4803456E-1,-1.0859888E-1,7.457158E-2,2.6123562E-1,-1.3979988E-2,-1.2870435E-1,1.7470293E-1,6.9989614E-2,3.1562364E-1,7.349795E-2,2.4312674E-1,-3.2193664E-2,2.2972257E-1,3.3991665E-2,-6.819646E-2,2.8707388E-1,1.0095448E-1,-1.3601531E-2,4.083205E-2,-7.0188264E-3,1.0988632E-2,2.5150945E-2,6.06743E-2,4.213011E-2,-2.5549216E-2,-2.1034943E-2,-7.456414E-3,1.439597E-2,7.1190715E-2,2.3090918E-2,-2.255937E-3,3.3289548E-2,-6.453285E-2,1.627447E-3,1.09539665E-2,-1.2828234E-2,2.9268691E-2,4.624978E-2,-3.957559E-3,1.0818183E-2,3.365716E-2,2.8744623E-2,-1.5534612E-2,-4.8747715E-2,3.1140937E-2,5.436543E-3,2.2748094E-2],"categories":[],"categories_nodes":[],"categories_segments":[],"categories_sizes":[],"default_left":[0,0,0,0,0,0,0,0,0,0,0,0,0,0,0,0,0,0,0,0,0,0,0,0,0,0,0,0,0,0,0,0,0,0,0,0,0,0,0,0,0,0,0,0,0,0,0,0,0,0,0,0,0,0,0,0,0,0,0,0,0],"id":19,"left_children":[1,3,5,7,9,11,13,15,17,19,21,23,25,27,29,31,33,35,37,39,41,43,45,47,49,51,53,55,-1,57,59,-1,-1,-1,-1,-1,-1,-1,-1,-1,-1,-1,-1,-1,-1,-1,-1,-1,-1,-1,-1,-1,-1,-1,-1,-1,-1,-1,-1,-1,-1],"loss_changes":[1.3582015E1,1.7975254E1,7.153107E0,8.095243E0,1.648922E1,7.812364E0,7.5443525E0,5.994152E0,4.0374203E0,1.1622665E1,3.1835146E0,3.1163387E0,6.9808607E0,9.033455E0,5.600563E0,3.924517E0,2.6506972E0,6.707115E-1,7.361311E0,9.82386E0,2.1105762E0,1.8370409E0,1.7749834E0,1.3635471E0,2.430469E0,6.4563837E0,1.3661323E0,3.2598853E0,0E0,4.242052E0,3.7838511E0,0E0,0E0,0E0,0E0,0E0,0E0,0E0,0E0,0E0,0E0,0E0,0E0,0E0,0E0,0E0,0E0,0E0,0E0,0E0,0E0,0E0,0E0,0E0,0E0,0E0,0E0,0E0,0E0,0E0,0E0],"parents":[2147483647,0,0,1,1,2,2,3,3,4,4,5,5,6,6,7,7,8,8,9,9,10,10,11,11,12,12,13,13,14,14,15,15,16,16,17,17,18,18,19,19,20,20,21,21,22,22,23,23,24,24,25,25,26,26,27,27,29,29,30,30],"right_children":[2,4,6,8,10,12,14,16,18,20,22,24,26,28,30,32,34,36,38,40,42,44,46,48,50,52,54,56,-1,58,60,-1,-1,-1,-1,-1,-1,-1,-1,-1,-1,-1,-1,-1,-1,-1,-1,-1,-1,-1,-1,-1,-1,-1,-1,-1,-1,-1,-1,-1,-1],"split_conditions":[4.0592E1,-2.1784E-1,2.6138825E0,8.549E-1,1.367E1,6.168E1,2.847379E0,1.20928E1,3.6324322E0,3E0,2.6148999E0,6.4705884E-1,2E0,1E0,1.53094E2,3.0409606E0,5E-1,1E1,7E0,3.6019E1,2.2E1,8.333333E-1,1E0,2.0136898E0,-1.2268E0,1.27621E1,3.6363637E-1,2.8030396E0,-6.819646E-2,3E-1,2E0,-1.3601531E-2,4.083205E-2,-7.0188264E-3,1.0988632E-2,2.5150945E-2,6.06743E-2,4.213011E-2,-2.5549216E-2,-2.1034943E-2,-7.456414E-3,1.439597E-2,7.1190715E-2,2.3090918E-2,-2.255937E-3,3.3289548E-2,-6.453285E-2,1.627447E-3,1.09539665E-2,-1.2828234E-2,2.9268691E-2,4.624978E-2,-3.957559E-3,1.0818183E-2,3.365716E-2,2.8744623E-2,-1.5534612E-2,-4.8747715E-2,3.1140937E-2,5.436543E-3,2.2748094E-2],"split_indices":[62,22,64,54,17,47,63,61,63,14,64,13,27,11,57,64,12,4,2,62,2,37,26,64,22,61,13,63,0,13,44,0,0,0,0,0,0,0,0,0,0,0,0,0,0,0,0,0,0,0,0,0,0,0,0,0,0,0,0,0,0],"split_type":[0,0,0,0,0,0,0,0,0,0,0,0,0,0,0,0,0,0,0,0,0,0,0,0,0,0,0,0,0,0,0,0,0,0,0,0,0,0,0,0,0,0,0,0,0,0,0,0,0,0,0,0,0,0,0,0,0,0,0,0,0],"sum_hessian":[7.28E3,3.673E3,3.607E3,1.1E3,2.573E3,2.659E3,9.48E2,7.88E2,3.12E2,2.358E3,2.15E2,7.9E2,1.869E3,8.9E1,8.59E2,2.72E2,5.16E2,2.44E2,6.8E1,2.225E3,1.33E2,1.22E2,9.3E1,6.61E2,1.29E2,1.762E3,1.07E2,6.6E1,2.3E1,2.16E2,6.43E2,2.59E2,1.3E1,1.01E2,4.15E2,2.39E2,5E0,2.4E1,4.4E1,8.86E2,1.339E3,1.27E2,6E0,4.4E1,7.8E1,9.2E1,1E0,2.56E2,4.05E2,1.5E1,1.14E2,2.5E1,1.737E3,5.1E1,5.6E1,2.8E1,3.8E1,6E0,2.1E2,4.71E2,1.72E2],"tree_param":{"num_deleted":"0","num_feature":"67","num_nodes":"61","size_leaf_vector":"1"}},{"base_weights":[-5.9410627E-4,-1.301739E-2,1.353525E-1,-5.794036E-2,2.9178074E-2,-2.1884406E-2,2.368545E-1,5.763169E-2,-9.912975E-2,1.937596E-2,2.1610345E-1,1.965236E-1,-7.722175E-2,3.6400166E-1,2.0773037E-1,6.796455E-2,-4.544995E-1,-1.4436823E-1,-2.17031E-3,2.3196038E-2,-4.2553666E-1,5.6571984E-1,1.5279645E-1,4.225004E-1,9.406144E-2,2.582129E-2,-2.0572671E-1,5.3324544E-1,2.077908E-1,1.7235929E-1,3.7650964E-1,4.8238263E-3,2.5662636E-2,-6.037123E-3,-6.639903E-2,-1.5372661E-2,3.968892E-2,-8.676509E-3,6.4401156E-3,9.536034E-3,-1.4927004E-4,-6.0796585E-2,5.3523052E-2,2.4403531E-2,6.951332E-2,4.163907E-3,2.8490022E-2,5.2266207E-2,2.9765243E-2,1.8737001E-2,-5.928499E-3,-1.557245E-2,3.6434576E-2,-4.3856464E-2,-1.0311177E-2,6.270699E-2,1.7338822E-2,7.4601844E-3,2.2167427E-2,2.2679066E-2,-1.0778925E-2,4.5559607E-3,4.1074775E-2],"categories":[],"categories_nodes":[],"categories_segments":[],"categories_sizes":[],"default_left":[0,0,0,0,0,0,0,0,0,0,0,0,0,0,0,0,0,0,0,0,0,0,0,0,0,0,0,0,0,0,0,0,0,0,0,0,0,0,0,0,0,0,0,0,0,0,0,0,0,0,0,0,0,0,0,0,0,0,0,0,0,0,0],"id":20,"left_children":[1,3,5,7,9,11,13,15,17,19,21,23,25,27,29,31,33,35,37,39,41,43,45,47,49,51,53,55,57,59,61,-1,-1,-1,-1,-1,-1,-1,-1,-1,-1,-1,-1,-1,-1,-1,-1,-1,-1,-1,-1,-1,-1,-1,-1,-1,-1,-1,-1,-1,-1,-1,-1],"loss_changes":[1.2344267E1,1.269616E1,9.772618E0,1.5448262E1,6.3244534E0,2.9279306E0,1.3019199E0,4.544775E0,1.0491713E1,5.5896626E0,3.7204647E0,1.0948083E0,2.5609298E0,1.6869612E0,1.7559271E0,3.1025968E0,1.3635404E0,8.322498E0,4.2968664E0,5.8011804E0,5.233016E0,9.1275024E-1,2.1467302E0,3.2003164E-2,5.1190704E-1,6.6941686E0,2.009547E0,9.717026E-1,5.188024E-2,3.8976574E0,5.705037E-1,0E0,0E0,0E0,0E0,0E0,0E0,0E0,0E0,0E0,0E0,0E0,0E0,0E0,0E0,0E0,0E0,0E0,0E0,0E0,0E0,0E0,0E0,0E0,0E0,0E0,0E0,0E0,0E0,0E0,0E0,0E0,0E0],"parents":[2147483647,0,0,1,1,2,2,3,3,4,4,5,5,6,6,7,7,8,8,9,9,10,10,11,11,12,12,13,13,14,14,15,15,16,16,17,17,18,18,19,19,20,20,21,21,22,22,23,23,24,24,25,25,26,26,27,27,28,28,29,29,30,30],"right_children":[2,4,6,8,10,12,14,16,18,20,22,24,26,28,30,32,34,36,38,40,42,44,46,48,50,52,54,56,58,60,62,-1,-1,-1,-1,-1,-1,-1,-1,-1,-1,-1,-1,-1,-1,-1,-1,-1,-1,-1,-1,-1,-1,-1,-1,-1,-1,-1,-1,-1,-1,-1,-1],"split_conditions":[1.907E1,1.2467E0,7.5008766E1,-2.1784E-1,3.68714E2,2.699E1,-5.3E-2,9.49E0,7.5E-1,1E0,2.9E1,4.5133E1,3.437E1,3.437E1,1.1127E0,-2.975E-1,-4.104E-1,3.58878E1,6E0,6.168E1,1.1E1,3.33086E1,4.157E1,1E1,3E0,-1.712E-1,1.0681E1,1.6E1,3E0,6.205E-1,6.55E-2,4.8238263E-3,2.5662636E-2,-6.037123E-3,-6.639903E-2,-1.5372661E-2,3.968892E-2,-8.676509E-3,6.4401156E-3,9.536034E-3,-1.4927004E-4,-6.0796585E-2,5.3523052E-2,2.4403531E-2,6.951332E-2,4.163907E-3,2.8490022E-2,5.2266207E-2,2.9765243E-2,1.8737001E-2,-5.928499E-3,-1.557245E-2,3.6434576E-2,-4.3856464E-2,-1.0311177E-2,6.270699E-2,1.7338822E-2,7.4601844E-3,2.2167427E-2,2.2679066E-2,-1.0778925E-2,4.5559607E-3,4.1074775E-2],"split_indices":[17,23,18,22,58,16,22,17,12,11,5,21,17,17,23,22,23,20,2,16,2,20,16,5,2,23,20,5,7,23,22,0,0,0,0,0,0,0,0,0,0,0,0,0,0,0,0,0,0,0,0,0,0,0,0,0,0,0,0,0,0,0,0],"split_type":[0,0,0,0,0,0,0,0,0,0,0,0,0,0,0,0,0,0,0,0,0,0,0,0,0,0,0,0,0,0,0,0,0,0,0,0,0,0,0,0,0,0,0,0,0,0,0,0,0,0,0,0,0,0,0,0,0,0,0,0,0,0,0],"sum_hessian":[7.307E3,6.696E3,6.11E2,3.243E3,3.453E3,2.4E2,3.71E2,8.52E2,2.391E3,3.282E3,1.71E2,4.8E1,1.92E2,6.7E1,3.04E2,8.36E2,1.6E1,1.63E3,7.61E2,3.255E3,2.7E1,2.5E1,1.46E2,1.4E1,3.4E1,1.07E2,8.5E1,3.1E1,3.6E1,2.53E2,5.1E1,7.58E2,7.8E1,6E0,1E1,1.603E3,2.7E1,3.35E2,4.26E2,8.29E2,2.426E3,2.3E1,4E0,8E0,1.7E1,8E1,6.6E1,6E0,8E0,2.1E1,1.3E1,7E1,3.7E1,2.5E1,6E1,2.4E1,7E0,4E0,3.2E1,2.12E2,4.1E1,5E0,4.6E1],"tree_param":{"num_deleted":"0","num_feature":"67","num_nodes":"63","size_leaf_vector":"1"}},{"base_weights":[2.5372962E-3,-8.079506E-2,1.9661473E-2,-1.0908402E-1,2.0255922E-1,6.96812E-3,1.8903033E-1,1.0376601E-2,-1.6709894E-1,2.4132009E-1,-8.8772655E-2,-6.662762E-2,3.2296345E-2,-6.921824E-2,2.1707615E-1,-6.468935E-2,2.0044486E-1,-1.9698614E-1,3.444065E-2,4.001016E-1,1.8591405E-1,-6.052759E-2,-2.4819558E-3,4.595508E-1,-8.045654E-2,8.153067E-2,6.4268247E-6,1.7117678E-1,-3.1776452E-1,8.6873524E-2,2.7395734E-1,-2.3709708E-3,-2.2513336E-2,4.081836E-2,1.3042422E-2,-2.1063408E-2,1.7459787E-2,4.423468E-2,-6.7966394E-3,2.2385325E-2,5.0267696E-2,1.3521263E-2,3.3090185E-2,-4.03244E-3,6.613083E-3,1.270572E-2,5.0753236E-2,-4.1455176E-4,-1.6441531E-2,9.038173E-3,-5.2410748E-2,-1.0089275E-3,2.9004991E-2,3.69406E-2,1.3288355E-2,-3.854812E-2,-2.348536E-2,-2.1953011E-2,2.6138663E-2,4.6434175E-2,2.3788719E-2],"categories":[],"categories_nodes":[],"categories_segments":[],"categories_sizes":[],"default_left":[0,0,0,0,0,0,0,0,0,0,0,0,0,0,0,0,0,0,0,0,0,0,0,0,0,0,0,0,0,0,0,0,0,0,0,0,0,0,0,0,0,0,0,0,0,0,0,0,0,0,0,0,0,0,0,0,0,0,0,0,0],"id":21,"left_children":[1,3,5,7,9,11,13,15,17,19,21,23,25,27,29,31,33,35,37,39,41,-1,43,45,47,49,51,53,55,57,59,-1,-1,-1,-1,-1,-1,-1,-1,-1,-1,-1,-1,-1,-1,-1,-1,-1,-1,-1,-1,-1,-1,-1,-1,-1,-1,-1,-1,-1,-1],"loss_changes":[1.0388706E1,9.969701E0,1.2981682E1,7.826268E0,1.2974496E0,1.0476246E1,3.0642405E0,5.2919993E0,4.584608E0,8.053608E-1,6.2246966E-1,1.0507827E1,6.6468377E0,2.563864E0,2.7905102E0,1.743596E0,1.4740925E0,3.3940125E0,4.1655383E0,3.3944225E-1,5.1394033E-1,0E0,3.6420863E-2,5.2579594E-1,8.988309E0,8.924424E0,7.399541E0,1.17910385E-1,2.7371883E-2,6.3135414E0,1.7024803E0,0E0,0E0,0E0,0E0,0E0,0E0,0E0,0E0,0E0,0E0,0E0,0E0,0E0,0E0,0E0,0E0,0E0,0E0,0E0,0E0,0E0,0E0,0E0,0E0,0E0,0E0,0E0,0E0,0E0,0E0],"parents":[2147483647,0,0,1,1,2,2,3,3,4,4,5,5,6,6,7,7,8,8,9,9,10,10,11,11,12,12,13,13,14,14,15,15,16,16,17,17,18,18,19,19,20,20,22,22,23,23,24,24,25,25,26,26,27,27,28,28,29,29,30,30],"right_children":[2,4,6,8,10,12,14,16,18,20,22,24,26,28,30,32,34,36,38,40,42,-1,44,46,48,50,52,54,56,58,60,-1,-1,-1,-1,-1,-1,-1,-1,-1,-1,-1,-1,-1,-1,-1,-1,-1,-1,-1,-1,-1,-1,-1,-1,-1,-1,-1,-1,-1,-1],"split_conditions":[1.5384616E-1,1E0,1.907E1,1.4585E1,9.23E0,8.935E-1,2.0678225E0,4.0592E1,3E0,2.8320858E0,1.007E2,2.1256216E0,5E0,8E0,2.8572717E0,2.6148999E0,1E0,1.5E1,9.49E0,6E0,1.438E-2,-6.052759E-2,4E0,6E0,4.458227E0,1E0,2.98579E2,3E0,1.4E1,3.846154E-1,7.2727275E-1,-2.3709708E-3,-2.2513336E-2,4.081836E-2,1.3042422E-2,-2.1063408E-2,1.7459787E-2,4.423468E-2,-6.7966394E-3,2.2385325E-2,5.0267696E-2,1.3521263E-2,3.3090185E-2,-4.03244E-3,6.613083E-3,1.270572E-2,5.0753236E-2,-4.1455176E-4,-1.6441531E-2,9.038173E-3,-5.2410748E-2,-1.0089275E-3,2.9004991E-2,3.69406E-2,1.3288355E-2,-3.854812E-2,-2.348536E-2,-2.1953011E-2,2.6138663E-2,4.6434175E-2,2.3788719E-2],"split_indices":[12,49,60,61,60,23,64,21,7,64,1,64,43,2,63,64,24,5,60,2,55,0,24,5,63,11,58,5,5,13,12,0,0,0,0,0,0,0,0,0,0,0,0,0,0,0,0,0,0,0,0,0,0,0,0,0,0,0,0,0,0],"split_type":[0,0,0,0,0,0,0,0,0,0,0,0,0,0,0,0,0,0,0,0,0,0,0,0,0,0,0,0,0,0,0,0,0,0,0,0,0,0,0,0,0,0,0,0,0,0,0,0,0,0,0,0,0,0,0,0,0,0,0,0,0],"sum_hessian":[7.278E3,1.24E3,6.038E3,1.128E3,1.12E2,5.618E3,4.2E2,3.69E2,7.59E2,9.9E1,1.3E1,1.438E3,4.18E3,4.1E1,3.79E2,2.65E2,1.04E2,6.61E2,9.8E1,2.4E1,7.5E1,1E0,1.2E1,3.6E1,1.402E3,1.655E3,2.525E3,2.1E1,2E1,1.16E2,2.63E2,2.12E2,5.3E1,2.5E1,7.9E1,6.38E2,2.3E1,1.9E1,7.9E1,1E1,1.4E1,5.7E1,1.8E1,8E0,4E0,5E0,3.1E1,7.35E2,6.67E2,1.632E3,2.3E1,2.441E3,8.4E1,2E0,1.9E1,9E0,1.1E1,4.2E1,7.4E1,4E1,2.23E2],"tree_param":{"num_deleted":"0","num_feature":"67","num_nodes":"61","size_leaf_vector":"1"}},{"base_weights":[-1.0656497E-3,1.1431565E-1,-1.0067258E-1,2.533844E-1,8.338686E-2,-3.324284E-2,-1.7987275E-1,1.4842576E-1,3.1301862E-1,-1.0691259E-2,1.1985992E-1,-8.08978E-2,1.0349875E-1,5.8625482E-2,-2.0227675E-1,2.7891967E-1,1.5441501E-2,4.573853E-1,2.7604222E-1,-1.8661508E-1,8.8132E-2,9.690314E-2,2.6139462E-1,-2.5495884E-1,-4.6369735E-2,7.9869926E-2,4.8054075E-1,1.2881576E-1,-2.9458073E-1,-2.3897591E-1,-2.3676945E-2,4.1722957E-2,2.1665147E-2,4.0282155E-3,-9.005297E-2,4.70625E-2,-3.048253E-3,2.274039E-2,3.6373474E-2,-1.5914084E-2,-5.330757E-2,1.8980904E-2,-1.9817273E-3,6.355328E-3,2.2119073E-2,2.0588769E-2,4.429117E-2,-3.1602886E-2,3.85413E-2,4.539344E-3,-1.1796932E-2,3.3085009E-3,2.5795555E-2,5.4272033E-2,-7.235129E-2,-1.0408316E-2,1.880413E-2,-3.996393E-2,-1.149882E-2,-2.0796152E-2,-3.831017E-2,5.221662E-3,-3.8407538E-2],"categories":[],"categories_nodes":[],"categories_segments":[],"categories_sizes":[],"default_left":[0,0,0,0,0,0,0,0,0,0,0,0,0,0,0,0,0,0,0,0,0,0,0,0,0,0,0,0,0,0,0,0,0,0,0,0,0,0,0,0,0,0,0,0,0,0,0,0,0,0,0,0,0,0,0,0,0,0,0,0,0,0,0],"id":22,"left_children":[1,3,5,7,9,11,13,15,17,19,21,23,25,27,29,31,33,35,37,39,41,43,45,47,49,51,53,55,57,59,61,-1,-1,-1,-1,-1,-1,-1,-1,-1,-1,-1,-1,-1,-1,-1,-1,-1,-1,-1,-1,-1,-1,-1,-1,-1,-1,-1,-1,-1,-1,-1,-1],"loss_changes":[8.364445E1,1.4482609E1,2.085381E1,3.7903824E0,9.471714E0,1.3764524E1,9.608448E0,3.8829083E0,1.9556274E0,1.3437949E1,6.437292E0,9.39982E0,4.825965E0,3.8806515E0,1.0756775E1,8.8279724E-1,2.5846477E0,5.181656E-1,1.2522984E0,2.5613766E0,5.436862E0,7.0862827E0,2.6997108E0,1.025065E1,8.599182E0,4.282302E0,2.7884264E0,1.8127351E0,4.4460702E-1,6.0084305E0,7.7059455E0,0E0,0E0,0E0,0E0,0E0,0E0,0E0,0E0,0E0,0E0,0E0,0E0,0E0,0E0,0E0,0E0,0E0,0E0,0E0,0E0,0E0,0E0,0E0,0E0,0E0,0E0,0E0,0E0,0E0,0E0,0E0,0E0],"parents":[2147483647,0,0,1,1,2,2,3,3,4,4,5,5,6,6,7,7,8,8,9,9,10,10,11,11,12,12,13,13,14,14,15,15,16,16,17,17,18,18,19,19,20,20,21,21,22,22,23,23,24,24,25,25,26,26,27,27,28,28,29,29,30,30],"right_children":[2,4,6,8,10,12,14,16,18,20,22,24,26,28,30,32,34,36,38,40,42,44,46,48,50,52,54,56,58,60,62,-1,-1,-1,-1,-1,-1,-1,-1,-1,-1,-1,-1,-1,-1,-1,-1,-1,-1,-1,-1,-1,-1,-1,-1,-1,-1,-1,-1,-1,-1,-1,-1],"split_conditions":[3.1845E2,2.94199E2,3.4211E2,6.666667E-1,4.6E1,1.6909715E2,-1.2804E0,2.6205833E0,2.88E2,1.4285715E-1,1.10972E0,1.5384616E-1,1E0,3.7297E2,1.7329E0,2.83851E2,1.907E1,6E0,1.69252E0,1.4509825E2,3.6324322E0,2.20132E0,3.0246186E0,1E0,4.458227E0,2.6909543E2,1.3E1,5.555556E-1,1.4011823E2,3.6115E2,3.8039E2,4.1722957E-2,2.1665147E-2,4.0282155E-3,-9.005297E-2,4.70625E-2,-3.048253E-3,2.274039E-2,3.6373474E-2,-1.5914084E-2,-5.330757E-2,1.8980904E-2,-1.9817273E-3,6.355328E-3,2.2119073E-2,2.0588769E-2,4.429117E-2,-3.1602886E-2,3.85413E-2,4.539344E-3,-1.1796932E-2,3.3085009E-3,2.5795555E-2,5.4272033E-2,-7.235129E-2,-1.0408316E-2,1.880413E-2,-3.996393E-2,-1.149882E-2,-2.0796152E-2,-3.831017E-2,5.221662E-3,-3.8407538E-2],"split_indices":[0,0,0,12,46,19,22,64,0,37,22,12,42,0,22,0,17,15,23,18,63,23,63,26,63,19,15,12,19,0,0,0,0,0,0,0,0,0,0,0,0,0,0,0,0,0,0,0,0,0,0,0,0,0,0,0,0,0,0,0,0,0,0],"split_type":[0,0,0,0,0,0,0,0,0,0,0,0,0,0,0,0,0,0,0,0,0,0,0,0,0,0,0,0,0,0,0,0,0,0,0,0,0,0,0,0,0,0,0,0,0,0,0,0,0,0,0,0,0,0,0,0,0,0,0,0,0,0,0],"sum_hessian":[7.276E3,3.371E3,3.905E3,6.12E2,2.759E3,2.11E3,1.795E3,2.23E2,3.89E2,7.71E2,1.988E3,1.565E3,5.45E2,1.54E2,1.641E3,1.12E2,1.11E2,7.7E1,3.12E2,2.77E2,4.94E2,1.712E3,2.76E2,2.58E2,1.307E3,5.14E2,3.1E1,1.29E2,2.5E1,1.361E3,2.8E2,3.3E1,7.9E1,1.09E2,2E0,7.5E1,2E0,2.03E2,1.09E2,2.58E2,1.9E1,2.54E2,2.4E2,1.351E3,3.61E2,2.13E2,6.3E1,2.36E2,2.2E1,5.73E2,7.34E2,4.08E2,1.06E2,3E1,1E0,2.6E1,1.03E2,1.5E1,1E1,1.122E3,2.39E2,2.32E2,4.8E1],"tree_param":{"num_deleted":"0","num_feature":"67","num_nodes":"63","size_leaf_vector":"1"}},{"base_weights":[-5.481097E-4,1.4879926E-1,-6.630696E-2,3.5079104E-1,1.3423009E-1,-2.5510482E-2,-1.895531E-1,-3.1653404E-2,3.6155954E-1,4.9401E-2,1.6916685E-1,-9.007752E-2,4.5085955E-2,8.7517254E-2,-2.1075857E-1,1.2393602E-2,-1.766917E-2,2.8644386E-1,4.2784825E-1,1.1229266E-1,-1.2700441E-1,-5.5586684E-1,1.7401364E-1,-1.1115464E-1,2.532548E-1,1.7271486E-1,3.8434698E-3,1.7036578E-1,-2.7826557E-1,-2.5054047E-1,-6.531816E-2,1.7849892E-2,4.1996963E-2,5.3071827E-2,3.7513394E-2,9.498455E-3,4.7793724E-2,-1.576404E-2,6.855923E-2,-1.1159977E-2,-6.529836E-2,1.2452192E-2,2.392801E-2,9.35158E-3,-1.3865809E-2,-3.1997193E-2,3.2314505E-2,1.9941656E-2,-6.787833E-3,-8.59924E-3,9.565827E-3,2.1061635E-2,-1.4373459E-2,-5.6501288E-2,3.940013E-3,-2.8097246E-2,-1.027657E-2,-1.1528188E-2,1.8724527E-2],"categories":[],"categories_nodes":[],"categories_segments":[],"categories_sizes":[],"default_left":[0,0,0,0,0,0,0,0,0,0,0,0,0,0,0,0,0,0,0,0,0,0,0,0,0,0,0,0,0,0,0,0,0,0,0,0,0,0,0,0,0,0,0,0,0,0,0,0,0,0,0,0,0,0,0,0,0,0,0],"id":23,"left_children":[1,3,5,7,9,11,13,15,17,19,21,23,25,27,29,-1,-1,31,33,35,37,39,41,43,45,47,49,51,53,55,57,-1,-1,-1,-1,-1,-1,-1,-1,-1,-1,-1,-1,-1,-1,-1,-1,-1,-1,-1,-1,-1,-1,-1,-1,-1,-1,-1,-1],"loss_changes":[7.144718E1,6.4978104E0,2.5391638E1,6.250801E-1,6.144188E0,1.7307E1,7.397957E0,1.3473056E-1,5.9944725E-1,6.748581E0,5.2624397E0,1.4378044E1,9.547749E0,2.7748175E0,6.735775E0,0E0,0E0,9.4838905E-1,2.0761299E-1,2.789825E0,4.0912275E0,3.5858488E-1,4.689453E0,1.0533836E1,4.710635E0,2.859477E0,1.1324842E1,9.6583414E-1,1.5707879E0,4.0904503E0,3.2015765E0,0E0,0E0,0E0,0E0,0E0,0E0,0E0,0E0,0E0,0E0,0E0,0E0,0E0,0E0,0E0,0E0,0E0,0E0,0E0,0E0,0E0,0E0,0E0,0E0,0E0,0E0,0E0,0E0],"parents":[2147483647,0,0,1,1,2,2,3,3,4,4,5,5,6,6,7,7,8,8,9,9,10,10,11,11,12,12,13,13,14,14,17,17,18,18,19,19,20,20,21,21,22,22,23,23,24,24,25,25,26,26,27,27,28,28,29,29,30,30],"right_children":[2,4,6,8,10,12,14,16,18,20,22,24,26,28,30,-1,-1,32,34,36,38,40,42,44,46,48,50,52,54,56,58,-1,-1,-1,-1,-1,-1,-1,-1,-1,-1,-1,-1,-1,-1,-1,-1,-1,-1,-1,-1,-1,-1,-1,-1,-1,-1,-1,-1],"split_conditions":[3.0835E2,2.83851E2,3.479E2,1E0,6E-1,7.7338367E0,-2.305E0,2.83E2,5.714286E-1,3.5016885E0,2.8288682E0,3E0,2E0,3.7315E2,1.9716484E2,1.2393602E-2,-1.766917E-2,1.3710733E2,2.83E2,3.895E-1,1E0,2.94199E2,1.3609E0,-1.1123E0,3.529412E-1,9E0,7.5E-1,2E0,1.4011823E2,2.3772E0,1.23719E0,1.7849892E-2,4.1996963E-2,5.3071827E-2,3.7513394E-2,9.498455E-3,4.7793724E-2,-1.576404E-2,6.855923E-2,-1.1159977E-2,-6.529836E-2,1.2452192E-2,2.392801E-2,9.35158E-3,-1.3865809E-2,-3.1997193E-2,3.2314505E-2,1.9941656E-2,-6.787833E-3,-8.59924E-3,9.565827E-3,2.1061635E-2,-1.4373459E-2,-5.6501288E-2,3.940013E-3,-2.8097246E-2,-1.027657E-2,-1.1528188E-2,1.8724527E-2],"split_indices":[0,0,0,27,12,66,22,0,12,63,63,14,24,0,19,0,0,19,0,22,11,0,23,22,13,2,13,9,19,22,22,0,0,0,0,0,0,0,0,0,0,0,0,0,0,0,0,0,0,0,0,0,0,0,0,0,0,0,0],"split_type":[0,0,0,0,0,0,0,0,0,0,0,0,0,0,0,0,0,0,0,0,0,0,0,0,0,0,0,0,0,0,0,0,0,0,0,0,0,0,0,0,0,0,0,0,0,0,0,0,0,0,0,0,0,0,0,0,0,0,0],"sum_hessian":[7.273E3,2.223E3,5.05E3,1.48E2,2.075E3,3.795E3,1.255E3,4E0,1.44E2,6.06E2,1.469E3,1.982E3,1.813E3,8.9E1,1.166E3,2E0,2E0,7E1,7.4E1,4.47E2,1.59E2,9E0,1.46E3,1.868E3,1.14E2,4.42E2,1.371E3,7.3E1,1.6E1,9.15E2,2.51E2,4E1,3E1,2.2E1,5.2E1,4.28E2,1.9E1,1.54E2,5E0,2E0,7E0,8.32E2,6.28E2,2.21E2,1.647E3,1.2E1,1.02E2,3.98E2,4.4E1,6.93E2,6.78E2,6.5E1,8E0,8E0,8E0,7.58E2,1.57E2,2.1E2,4.1E1],"tree_param":{"num_deleted":"0","num_feature":"67","num_nodes":"59","size_leaf_vector":"1"}},{"base_weights":[-5.324613E-4,1.1177607E-1,-7.5276576E-2,3.4268923E-2,1.4529744E-1,-4.0830847E-2,-1.943759E-1,8.205942E-2,-1.107866E-1,2.5489187E-1,1.18095085E-1,-5.8759335E-2,2.0095791E-1,6.5779746E-2,-2.1500926E-1,5.140675E-2,2.7951875E-1,-1.3729559E-1,6.055497E-2,3.7480414E-1,2.2641702E-1,-8.880851E-2,1.2049179E-1,-1.00564376E-1,4.392541E-2,-6.506296E-2,2.0737764E-1,1.9873099E-1,-1.974359E-1,-2.5253406E-1,-8.69686E-2,1.5298677E-2,-1.5585291E-3,3.2906342E-2,-2.6325379E-2,5.3776517E-3,-2.4014423E-2,3.860161E-2,-2.6691915E-3,4.4006683E-2,2.0663168E-2,4.2609246E-3,1.4943242E-2,9.909763E-3,-1.2455326E-2,1.4334939E-3,1.9275682E-2,2.3199053E-2,6.080745E-3,2.5998155E-2,-1.47675695E-2,-3.2239895E-2,2.2248602E-3,-2.8468935E-2,1.2999114E-3,7.509721E-5,-3.3100214E-2],"categories":[],"categories_nodes":[],"categories_segments":[],"categories_sizes":[],"default_left":[0,0,0,0,0,0,0,0,0,0,0,0,0,0,0,0,0,0,0,0,0,0,0,0,0,0,0,0,0,0,0,0,0,0,0,0,0,0,0,0,0,0,0,0,0,0,0,0,0,0,0,0,0,0,0,0,0],"id":24,"left_children":[1,3,5,7,9,11,13,15,17,19,21,23,25,27,29,31,33,35,-1,37,39,-1,41,43,45,-1,47,49,51,53,55,-1,-1,-1,-1,-1,-1,-1,-1,-1,-1,-1,-1,-1,-1,-1,-1,-1,-1,-1,-1,-1,-1,-1,-1,-1,-1],"loss_changes":[6.1279152E1,7.5738106E0,1.7973156E1,6.1233582E0,6.0396767E0,1.47548275E1,5.2907715E0,4.0045943E0,4.2418056E0,1.2945881E0,4.0450134E0,1.3599525E1,1.4196625E0,2.5938606E0,4.3551216E0,3.9220943E0,2.479968E0,4.179033E0,0E0,3.5242176E-1,1.299797E0,0E0,3.6676025E0,1.0793882E1,4.0356975E0,0E0,8.300524E-1,1.0780551E0,6.934842E-1,6.01466E0,4.4528046E0,0E0,0E0,0E0,0E0,0E0,0E0,0E0,0E0,0E0,0E0,0E0,0E0,0E0,0E0,0E0,0E0,0E0,0E0,0E0,0E0,0E0,0E0,0E0,0E0,0E0,0E0],"parents":[2147483647,0,0,1,1,2,2,3,3,4,4,5,5,6,6,7,7,8,8,9,9,10,10,11,11,12,12,13,13,14,14,15,15,16,16,17,17,19,19,20,20,22,22,23,23,24,24,26,26,27,27,28,28,29,29,30,30],"right_children":[2,4,6,8,10,12,14,16,18,20,22,24,26,28,30,32,34,36,-1,38,40,-1,42,44,46,-1,48,50,52,54,56,-1,-1,-1,-1,-1,-1,-1,-1,-1,-1,-1,-1,-1,-1,-1,-1,-1,-1,-1,-1,-1,-1,-1,-1,-1,-1],"split_conditions":[3.1565E2,6E-1,3.5047E2,3.2659864E0,2.94199E2,1.8237E0,-2.305E0,3.865747E0,1.647E1,2.83851E2,1.73E0,7.2727275E-1,5E0,3.6629E2,1.5917E0,3.88E-2,1.1E1,2.98E2,6.055497E-2,6E0,-4.636E-1,-8.880851E-2,1.01325E2,-9.07E-1,1.739E1,-6.506296E-2,4.458227E0,4.3914914E0,4.0592E1,1E0,3.8039E2,1.5298677E-2,-1.5585291E-3,3.2906342E-2,-2.6325379E-2,5.3776517E-3,-2.4014423E-2,3.860161E-2,-2.6691915E-3,4.4006683E-2,2.0663168E-2,4.2609246E-3,1.4943242E-2,9.909763E-3,-1.2455326E-2,1.4334939E-3,1.9275682E-2,2.3199053E-2,6.080745E-3,2.5998155E-2,-1.47675695E-2,-3.2239895E-2,2.2248602E-3,-2.8468935E-2,1.2999114E-3,7.509721E-5,-3.3100214E-2],"split_indices":[0,12,0,63,0,22,22,65,17,0,65,13,4,0,22,22,15,0,0,15,22,0,1,22,66,0,63,64,21,41,0,0,0,0,0,0,0,0,0,0,0,0,0,0,0,0,0,0,0,0,0,0,0,0,0,0,0],"split_type":[0,0,0,0,0,0,0,0,0,0,0,0,0,0,0,0,0,0,0,0,0,0,0,0,0,0,0,0,0,0,0,0,0,0,0,0,0,0,0,0,0,0,0,0,0,0,0,0,0,0,0,0,0,0,0,0,0],"sum_hessian":[7.298E3,2.916E3,4.382E3,8.81E2,2.035E3,3.4E3,9.82E2,6.63E2,2.18E2,4.03E2,1.632E3,3.166E3,2.34E2,7.2E1,9.1E2,5.75E2,8.8E1,2.11E2,7E0,7.5E1,3.28E2,3E0,1.629E3,2.25E3,9.16E2,1E0,2.33E2,4.8E1,2.4E1,7.03E2,2.07E2,2.28E2,3.47E2,8.1E1,7E0,7.4E1,1.37E2,7.3E1,2E0,2.6E1,3.02E2,4.42E2,1.187E3,2.41E2,2.009E3,7.65E2,1.51E2,1.99E2,3.4E1,4.1E1,7E0,1.5E1,9E0,6.27E2,7.6E1,1.53E2,5.4E1],"tree_param":{"num_deleted":"0","num_feature":"67","num_nodes":"57","size_leaf_vector":"1"}},{"base_weights":[-9.3306066E-4,7.305938E-2,-9.54517E-2,1.364067E-1,2.5082136E-2,-1.06819175E-1,2.0509623E-1,3.009566E-1,1.21907935E-1,-8.775811E-2,5.9954002E-2,-1.7336309E-1,-5.6490876E-2,4.5030254E-1,1.335695E-1,-6.380886E-2,3.092883E-1,8.139675E-2,1.8468374E-1,-2.6034957E-1,6.276919E-3,4.1168395E-2,2.2557957E-1,-1.998454E-2,-2.0564246E-1,-5.63442E-3,-1.5690349E-1,1.668467E-1,6.470471E-2,4.8576854E-2,3.3638227E-1,1.176368E-2,-1.6350301E-2,2.4006603E-2,3.6190797E-2,2.472311E-2,3.5166757E-3,1.9282652E-2,-1.9027958E-2,5.9020617E-3,-2.9945824E-2,-3.5768822E-3,5.0159186E-2,2.7630331E-3,3.279045E-2,2.8713724E-2,-8.5576996E-2,-7.073135E-3,3.2406837E-2,-2.4721043E-2,-1.0303659E-2,-3.2969553E-3,2.523912E-2,-4.7821407E-3,-2.243137E-2,8.667538E-3,2.6175147E-2,1.7396787E-2,-7.455493E-3,4.127016E-2,1.8785404E-2],"categories":[],"categories_nodes":[],"categories_segments":[],"categories_sizes":[],"default_left":[0,0,0,0,0,0,0,0,0,0,0,0,0,0,0,0,0,0,0,0,0,0,0,0,0,0,0,0,0,0,0,0,0,0,0,0,0,0,0,0,0,0,0,0,0,0,0,0,0,0,0,0,0,0,0,0,0,0,0,0,0],"id":25,"left_children":[1,3,5,7,9,11,13,15,17,19,21,23,25,27,29,31,33,35,37,39,41,43,45,47,49,51,53,55,-1,57,59,-1,-1,-1,-1,-1,-1,-1,-1,-1,-1,-1,-1,-1,-1,-1,-1,-1,-1,-1,-1,-1,-1,-1,-1,-1,-1,-1,-1,-1,-1],"loss_changes":[5.0983795E1,1.242399E1,1.0958033E1,4.167038E0,9.165825E0,1.0322002E1,1.9918942E0,4.5128918E-1,4.1073685E0,8.927938E0,5.5258527E0,6.5707664E0,8.97657E0,1.34202E0,1.5695182E0,9.1590255E-2,4.194193E-1,7.5581627E0,1.9754963E0,2.4407597E0,7.4527817E0,6.198021E0,1.2294051E1,4.073546E0,4.653366E0,8.246418E0,4.335041E0,6.861627E-2,0E0,1.031985E0,2.2853255E-1,0E0,0E0,0E0,0E0,0E0,0E0,0E0,0E0,0E0,0E0,0E0,0E0,0E0,0E0,0E0,0E0,0E0,0E0,0E0,0E0,0E0,0E0,0E0,0E0,0E0,0E0,0E0,0E0,0E0,0E0],"parents":[2147483647,0,0,1,1,2,2,3,3,4,4,5,5,6,6,7,7,8,8,9,9,10,10,11,11,12,12,13,13,14,14,15,15,16,16,17,17,18,18,19,19,20,20,21,21,22,22,23,23,24,24,25,25,26,26,27,27,29,29,30,30],"right_children":[2,4,6,8,10,12,14,16,18,20,22,24,26,28,30,32,34,36,38,40,42,44,46,48,50,52,54,56,-1,58,60,-1,-1,-1,-1,-1,-1,-1,-1,-1,-1,-1,-1,-1,-1,-1,-1,-1,-1,-1,-1,-1,-1,-1,-1,-1,-1,-1,-1,-1,-1],"split_conditions":[3.28E2,3.0331E2,7E0,2.83851E2,5.82987E0,7.7338367E0,2.857143E-1,1E0,1.30242E0,1.4285715E-1,6.49804E1,-9.07E-1,3.5047E2,1E0,5.03812E1,2.83E2,3.846154E-1,-3.876E-1,1.5E1,1E0,8.125E-1,1.9545E0,1E0,1.86784E1,7.692308E-1,2.764E1,2E0,3.4315E2,6.470471E-2,3.43202E2,3.532E2,1.176368E-2,-1.6350301E-2,2.4006603E-2,3.6190797E-2,2.472311E-2,3.5166757E-3,1.9282652E-2,-1.9027958E-2,5.9020617E-3,-2.9945824E-2,-3.5768822E-3,5.0159186E-2,2.7630331E-3,3.279045E-2,2.8713724E-2,-8.5576996E-2,-7.073135E-3,3.2406837E-2,-2.4721043E-2,-1.0303659E-2,-3.2969553E-3,2.523912E-2,-4.7821407E-3,-2.243137E-2,8.667538E-3,2.6175147E-2,1.7396787E-2,-7.455493E-3,4.127016E-2,1.8785404E-2],"split_indices":[0,0,24,0,66,66,12,27,23,37,62,22,0,9,20,0,13,22,15,15,12,22,11,20,12,60,24,0,0,0,0,0,0,0,0,0,0,0,0,0,0,0,0,0,0,0,0,0,0,0,0,0,0,0,0,0,0,0,0,0,0],"split_type":[0,0,0,0,0,0,0,0,0,0,0,0,0,0,0,0,0,0,0,0,0,0,0,0,0,0,0,0,0,0,0,0,0,0,0,0,0,0,0,0,0,0,0,0,0,0,0,0,0,0,0,0,0,0,0,0,0,0,0,0,0],"sum_hessian":[7.288E3,4.088E3,3.2E3,1.761E3,2.327E3,3.084E3,1.16E2,1.41E2,1.62E3,5.49E2,1.778E3,1.327E3,1.757E3,2.5E1,9.1E1,3E0,1.38E2,9.86E2,6.34E2,1.93E2,3.56E2,1.598E3,1.8E2,2.31E2,1.096E3,1.167E3,5.9E2,1.1E1,1.4E1,6.5E1,2.6E1,1E0,2E0,6.2E1,7.6E1,2.14E2,7.72E2,6.21E2,1.3E1,2.1E1,1.72E2,3.29E2,2.7E1,1.527E3,7.1E1,1.71E2,9E0,2.02E2,2.9E1,7.79E2,3.17E2,1.056E3,1.11E2,2.26E2,3.64E2,7E0,4E0,3.2E1,3.3E1,1.6E1,1E1],"tree_param":{"num_deleted":"0","num_feature":"67","num_nodes":"61","size_leaf_vector":"1"}},{"base_weights":[-9.2525047E-4,6.5984756E-2,-8.594594E-2,1.41928E-1,3.391267E-2,-1.2043607E-1,3.2597017E-3,7.011842E-2,1.790574E-1,-5.5103347E-2,6.528424E-2,-9.815726E-2,-2.6992798E-1,2.9647533E-2,-2.1557336E-1,3.0328053E-1,4.698779E-2,3.431908E-1,1.6244152E-1,-1.959503E-1,1.7003216E-2,3.9352834E-2,1.5899377E-1,-1.1404006E-1,1.6146906E-1,7.073056E-2,-3.013829E-1,1.3290964E-3,2.1003416E-1,-1.7184538E-1,-3.5484724E-2,1.7282223E-2,3.9444774E-2,2.0932464E-2,1.23858E-3,4.6367437E-2,2.9444305E-2,2.6816338E-2,1.3401392E-2,-2.1350812E-2,4.4907432E-2,-2.6700299E-3,3.1572085E-2,5.470884E-4,1.5857272E-2,-5.623423E-2,1.6660457E-2,-1.4995821E-2,-9.967984E-4,-7.318289E-3,2.8126916E-2,3.371289E-2,-2.2160077E-2,2.228303E-2,-3.1399753E-2,-1.0329488E-3,6.599283E-2,1.4555215E-2,4.8647743E-2,-9.873915E-3,-3.23082E-2],"categories":[],"categories_nodes":[],"categories_segments":[],"categories_sizes":[],"default_left":[0,0,0,0,0,0,0,0,0,0,0,0,0,0,0,0,0,0,0,0,0,0,0,0,0,0,0,0,0,0,0,0,0,0,0,0,0,0,0,0,0,0,0,0,0,0,0,0,0,0,0,0,0,0,0,0,0,0,0,0,0],"id":26,"left_children":[1,3,5,7,9,11,13,15,17,19,21,23,25,27,29,31,33,35,37,39,41,43,45,47,49,51,53,55,57,59,-1,-1,-1,-1,-1,-1,-1,-1,-1,-1,-1,-1,-1,-1,-1,-1,-1,-1,-1,-1,-1,-1,-1,-1,-1,-1,-1,-1,-1,-1,-1],"loss_changes":[4.1231934E1,9.874214E0,9.821266E0,3.1976051E0,7.970805E0,7.64032E0,5.1514974E0,2.2077425E0,2.1069374E0,7.559387E0,5.121085E0,8.286219E0,3.2145042E0,4.0659013E0,5.236769E-1,3.7189078E-1,2.1094666E0,2.8635216E-1,2.133976E0,2.9498377E0,6.4445505E0,6.6803045E0,2.6025887E0,7.063469E0,3.281498E0,2.0994992E0,1.8752537E0,5.2971897E0,1.8543596E0,7.973244E-1,0E0,0E0,0E0,0E0,0E0,0E0,0E0,0E0,0E0,0E0,0E0,0E0,0E0,0E0,0E0,0E0,0E0,0E0,0E0,0E0,0E0,0E0,0E0,0E0,0E0,0E0,0E0,0E0,0E0,0E0,0E0],"parents":[2147483647,0,0,1,1,2,2,3,3,4,4,5,5,6,6,7,7,8,8,9,9,10,10,11,11,12,12,13,13,14,14,15,15,16,16,17,17,18,18,19,19,20,20,21,21,22,22,23,23,24,24,25,25,26,26,27,27,28,28,29,29],"right_children":[2,4,6,8,10,12,14,16,18,20,22,24,26,28,30,32,34,36,38,40,42,44,46,48,50,52,54,